#pragma once
#include <cstdarg>
namespace Eloquent {
    namespace ML {
        namespace Port {
            class PCA {
                public:
                    /**
                    * Apply dimensionality reduction
                    * @warn Will override the source vector if no dest provided!
                    */
                    void transform(float *x, float *dest = NULL) {
                        static float u[3] = { 0 };
                        u[0] = dot(x,   -0.00650692885  , 0.180158684823  , 0.022651208124  , 0.163694444109  , 0.020639355706  , 0.21200080248  , 0.024522507248  , 0.202949470115  , 0.05139696105  , 0.201593106443  , 0.005531196804  , 0.192091133152  , 0.263204028612  , 0.102084582627  , -0.024210984237  , 0.026208873357  , 0.211790553063  , 0.04213175054  , 0.171492194173  , 0.020962115624  , 0.191758513769  , 0.108153352808  , 0.204610143803  , 0.087045846028  , 0.213792813378  , 0.164286312162  , 0.177844367665  , 0.097097322787  , 0.23272077238  , 0.140712926403  , 0.247810877051  , 0.132223871022  , 0.231031430155  , 0.188206662097  , 0.131928838227  , 0.219748825739  , 0.052005284305  , 0.239848630168  , 0.190077124238 );
                        u[1] = dot(x,   0.293996220968  , -0.039280205174  , 0.262063474112  , -0.137187629204  , 0.276887705017  , -0.080456150181  , 0.292397753335  , -0.085453352605  , 0.275154486103  , -0.096489522396  , 0.210324682312  , -0.084972845441  , -0.119932850539  , 0.227727193101  , 0.148105927551  , 0.188657607824  , -0.01046613915  , 0.241178630503  , -0.105738005031  , 0.253855353839  , -0.095185688571  , 0.195388612586  , -0.058723856969  , 0.120297964095  , -0.058616947541  , 0.110213486223  , 0.071649761851  , 0.126312398588  , 0.082862019109  , -0.024217981798  , 0.061081012408  , -0.131160685741  , 0.08155138938  , -0.084488916279  , 0.187917840894  , -0.072630364174  , 0.22256901213  , -0.059361438417  , 0.129561428558 );
                        u[2] = dot(x,   -0.053565756564  , -0.008109087525  , -0.159070325818  , -0.083221052964  , -0.246879454397  , 0.081974172219  , -0.21828957852  , 0.042603781281  , -0.213359439649  , 0.087598623486  , -0.210144380423  , 0.136038848037  , -0.004169145371  , 0.176691302644  , 0.318607371636  , 0.286654738754  , -0.035099306188  , 0.127363735647  , -0.04482046248  , 0.171917953584  , -0.116568639764  , 0.20047817955  , -0.141973140894  , 0.233344051423  , -0.100738670385  , 0.279485583585  , 0.057658068434  , 0.244782333328  , -0.053119947152  , -0.016279851953  , -0.129681126259  , 0.086981288526  , -0.156129325406  , 0.051813469597  , -0.166846277154  , -0.075852364956  , -0.178510911671  , -0.102227191016  , 0.239945546194 );
                        memcpy(dest != NULL ? dest : x, u, sizeof(float) * 3);
                    }

                protected:
                    /**
                    * Compute dot product with varargs
                    */
                    float dot(float *x, ...) {
                        va_list w;
                        va_start(w, 39);
                        static float mean[] = {  0.0 , 0.0 , 0.0 , 0.0 , -0.0 , -0.0 , -0.0 , 0.0 , -0.0 , -0.0 , -0.0 , 0.0 , 0.0 , 0.0 , 0.0 , -0.0 , 0.0 , 0.0 , 0.0 , -0.0 , 0.0 , -0.0 , 0.0 , 0.0 , -0.0 , -0.0 , 0.0 , 0.0 , -0.0 , -0.0 , -0.0 , -0.0 , -0.0 , -0.0 , -0.0 , 0.0 , -0.0 , -0.0 , 0.0  };
                        float dot = 0.0;

                        for (uint16_t i = 0; i < 39; i++) {
                            dot += (x[i] - mean[i]) * va_arg(w, double);
                        }

                        return dot;
                    }
                };
            }
        }
    }