#pragma once
#include <cstdarg>

#define USE_PEAK 1 
#define PEAK_N 6 
#define USE_STD 0 
#define SORT 1

namespace Eloquent {
    namespace ML {
        namespace Port {
            class SVM {
                public:
                    /**
                    * Predict class for features vector
                    */
                    int predict(float *x) {
                        int kernels[1198] = { 0 };
                        int decisions[36] = { 0 };
                        int votes[9] = { 0 };
                        kernels[0] = compute_kernel(x,   156  , 162192  , 442  , 64016  , 572  , 46256  , 729  , 27344  , 859  , 51280  , 1015  , 37088  , 440  , 130  , 40560  , 286  , 71648  , 442  , 43040  , 572  , 43616  , 1145  , 26432  , 2213  , 30608  , 230  , 156  , 332528  , 286  , 93136  , 442  , 37392  , 572  , 51040  , 859  , 129312  , 1588  , 35824  , 363 );
                        kernels[1] = compute_kernel(x,   156  , 167152  , 442  , 68096  , 572  , 44816  , 729  , 28480  , 885  , 46176  , 1015  , 38464  , 416  , 156  , 40984  , 286  , 64144  , 442  , 44432  , 572  , 35816  , 1171  , 30176  , 1458  , 23656  , 226  , 156  , 103200  , 286  , 96304  , 442  , 41632  , 572  , 157184  , 729  , 32992  , 885  , 42176  , 340 );
                        kernels[2] = compute_kernel(x,   156  , 175632  , 442  , 73520  , 572  , 41088  , 729  , 29248  , 885  , 50000  , 1015  , 30384  , 449  , 156  , 40056  , 286  , 63160  , 442  , 153424  , 572  , 31656  , 729  , 23416  , 1171  , 32632  , 216  , 156  , 101664  , 286  , 94528  , 442  , 43696  , 572  , 43456  , 729  , 31728  , 885  , 48752  , 345 );
                        kernels[3] = compute_kernel(x,   130  , 501008  , 442  , 70992  , 572  , 46464  , 729  , 29072  , 885  , 46880  , 1015  , 38656  , 447  , 130  , 53976  , 286  , 64048  , 442  , 42920  , 598  , 95576  , 1171  , 31200  , 1744  , 34392  , 212  , 156  , 103248  , 286  , 95232  , 442  , 145136  , 572  , 45152  , 885  , 43104  , 1770  , 35120  , 352 );
                        kernels[4] = compute_kernel(x,   156  , 171904  , 442  , 68656  , 572  , 43232  , 703  , 35088  , 885  , 49440  , 1015  , 37920  , 441  , 156  , 40200  , 286  , 64304  , 442  , 42368  , 572  , 36472  , 729  , 23376  , 1171  , 31288  , 214  , 156  , 104672  , 286  , 97264  , 442  , 42064  , 572  , 45616  , 859  , 128480  , 1614  , 36880  , 368 );
                        kernels[5] = compute_kernel(x,   130  , 171008  , 442  , 58528  , 598  , 39968  , 729  , 30976  , 859  , 43248  , 989  , 28592  , 446  , 156  , 35712  , 286  , 48656  , 442  , 37448  , 598  , 30224  , 729  , 23768  , 1171  , 24640  , 229  , 130  , 100064  , 260  , 63792  , 338  , 32464  , 598  , 45360  , 859  , 43728  , 937  , 30704  , 345 );
                        kernels[6] = compute_kernel(x,   156  , 178784  , 286  , 52368  , 442  , 72208  , 572  , 147456  , 885  , 43728  , 1015  , 42384  , 413  , 156  , 40408  , 286  , 65744  , 442  , 43216  , 572  , 33784  , 729  , 23648  , 1171  , 33008  , 225  , 156  , 105584  , 286  , 95216  , 442  , 43632  , 572  , 44208  , 885  , 43424  , 1041  , 53152  , 360 );
                        kernels[7] = compute_kernel(x,   156  , 170640  , 442  , 72832  , 572  , 172512  , 729  , 30208  , 885  , 47152  , 1015  , 39408  , 448  , 156  , 40752  , 286  , 62984  , 442  , 43680  , 572  , 32736  , 729  , 24464  , 1171  , 32696  , 214  , 156  , 105712  , 286  , 96720  , 442  , 44912  , 598  , 127824  , 729  , 32416  , 885  , 41648  , 356 );
                        kernels[8] = compute_kernel(x,   156  , 168512  , 442  , 67296  , 572  , 46592  , 885  , 45200  , 1015  , 38944  , 1614  , 41216  , 411  , 156  , 40824  , 286  , 65432  , 442  , 42464  , 572  , 35136  , 1171  , 29840  , 1458  , 24976  , 223  , 156  , 313712  , 286  , 93136  , 442  , 41904  , 572  , 46560  , 729  , 32336  , 885  , 44768  , 346 );
                        kernels[9] = compute_kernel(x,   156  , 164208  , 286  , 75600  , 442  , 70576  , 572  , 48992  , 885  , 44432  , 1015  , 39408  , 442  , 156  , 41176  , 286  , 62968  , 442  , 113344  , 572  , 32920  , 703  , 34912  , 1171  , 31632  , 214  , 156  , 106736  , 286  , 95984  , 442  , 43584  , 572  , 46304  , 729  , 31616  , 885  , 40768  , 365 );
                        kernels[10] = compute_kernel(x,   26  , 186096  , 104  , 76480  , 182  , 30080  , 286  , 15168  , 364  , 12384  , 703  , 11248  , 503  , 26  , 17244  , 104  , 38296  , 208  , 29472  , 286  , 15628  , 598  , 17392  , 1093  , 15520  , 170  , 26  , 134736  , 104  , 87072  , 208  , 47184  , 312  , 26208  , 729  , 18384  , 1171  , 23936  , 370 );
                        kernels[11] = compute_kernel(x,   156  , 169568  , 442  , 242192  , 572  , 47184  , 729  , 29840  , 885  , 49072  , 1015  , 39424  , 448  , 156  , 41264  , 286  , 65000  , 442  , 43032  , 572  , 35176  , 729  , 24288  , 1171  , 32496  , 217  , 156  , 104880  , 286  , 97808  , 442  , 43520  , 572  , 45600  , 729  , 34144  , 885  , 44560  , 348 );
                        kernels[12] = compute_kernel(x,   156  , 168032  , 442  , 75024  , 572  , 44736  , 729  , 30752  , 885  , 50864  , 1015  , 35792  , 430  , 156  , 125096  , 286  , 66136  , 442  , 44776  , 598  , 79856  , 729  , 24000  , 1171  , 52664  , 226  , 156  , 103648  , 286  , 94560  , 442  , 43888  , 572  , 45792  , 729  , 33248  , 885  , 47568  , 343 );
                        kernels[13] = compute_kernel(x,   130  , 218128  , 442  , 71136  , 572  , 47808  , 885  , 46464  , 1015  , 41088  , 1145  , 34912  , 415  , 156  , 64336  , 286  , 64672  , 442  , 43528  , 572  , 31776  , 729  , 23280  , 1171  , 35048  , 225  , 156  , 106560  , 286  , 96112  , 442  , 46576  , 572  , 44224  , 729  , 31776  , 885  , 43488  , 360 );
                        kernels[14] = compute_kernel(x,   156  , 102848  , 260  , 32832  , 442  , 45232  , 624  , 52848  , 859  , 44656  , 1301  , 45520  , 410  , 156  , 29144  , 286  , 73048  , 416  , 66712  , 572  , 37400  , 859  , 28360  , 1145  , 26376  , 229  , 130  , 65968  , 286  , 102848  , 468  , 31264  , 572  , 39104  , 650  , 41056  , 859  , 140224  , 364 );
                        kernels[15] = compute_kernel(x,   156  , 170464  , 442  , 72480  , 572  , 49792  , 729  , 30320  , 885  , 46768  , 1015  , 131840  , 440  , 156  , 42056  , 286  , 65968  , 442  , 45496  , 572  , 33008  , 1171  , 33272  , 1458  , 24912  , 226  , 156  , 108512  , 286  , 327552  , 442  , 43760  , 572  , 46816  , 885  , 44752  , 1744  , 62848  , 370 );
                        kernels[16] = compute_kernel(x,   156  , 170480  , 442  , 69568  , 572  , 42384  , 885  , 50784  , 1015  , 38896  , 1588  , 29408  , 443  , 156  , 42888  , 286  , 64080  , 442  , 44600  , 572  , 34336  , 1171  , 105248  , 1458  , 25016  , 215  , 156  , 107248  , 286  , 96112  , 442  , 42544  , 572  , 45152  , 729  , 33392  , 885  , 46608  , 348 );
                        kernels[17] = compute_kernel(x,   156  , 172688  , 442  , 70992  , 572  , 45648  , 755  , 46080  , 885  , 50368  , 1015  , 34944  , 445  , 156  , 139888  , 286  , 65176  , 442  , 45048  , 572  , 32264  , 729  , 24952  , 1171  , 33824  , 216  , 156  , 106640  , 286  , 95104  , 442  , 45120  , 572  , 44288  , 729  , 34912  , 885  , 45232  , 359 );
                        kernels[18] = compute_kernel(x,   156  , 171856  , 442  , 68704  , 572  , 173360  , 885  , 45424  , 1015  , 136832  , 1171  , 52736  , 441  , 156  , 41272  , 286  , 65536  , 442  , 43512  , 572  , 33928  , 729  , 23096  , 1171  , 33648  , 220  , 156  , 109456  , 286  , 94400  , 442  , 44368  , 572  , 46624  , 885  , 44512  , 1770  , 46448  , 370 );
                        kernels[19] = compute_kernel(x,   156  , 171680  , 286  , 30880  , 442  , 71216  , 572  , 43200  , 885  , 49280  , 1015  , 39872  , 445  , 156  , 137240  , 286  , 64328  , 442  , 42856  , 572  , 36176  , 729  , 36816  , 1171  , 33224  , 221  , 156  , 106720  , 286  , 93568  , 442  , 44832  , 572  , 42912  , 729  , 34848  , 885  , 48080  , 348 );
                        kernels[20] = compute_kernel(x,   156  , 170928  , 442  , 70272  , 572  , 45520  , 755  , 37872  , 885  , 48720  , 1015  , 39328  , 412  , 130  , 116072  , 286  , 66360  , 442  , 43448  , 572  , 33848  , 1171  , 32736  , 1458  , 25272  , 227  , 156  , 108368  , 286  , 93344  , 442  , 43216  , 572  , 44288  , 729  , 32384  , 885  , 47296  , 357 );
                        kernels[21] = compute_kernel(x,   130  , 190752  , 234  , 36672  , 442  , 65200  , 598  , 48544  , 677  , 43968  , 859  , 34176  , 443  , 156  , 46680  , 312  , 54896  , 442  , 37904  , 598  , 115184  , 1145  , 27568  , 1458  , 20608  , 221  , 156  , 116176  , 286  , 81808  , 442  , 38592  , 598  , 43296  , 859  , 34768  , 1458  , 29440  , 370 );
                        kernels[22] = compute_kernel(x,   52  , 29120  , 156  , 164576  , 442  , 68432  , 572  , 45840  , 885  , 46848  , 1015  , 36496  , 440  , 156  , 40896  , 286  , 65392  , 442  , 42392  , 572  , 31696  , 729  , 23920  , 1171  , 31504  , 215  , 156  , 96176  , 286  , 91680  , 442  , 40576  , 572  , 149072  , 885  , 43232  , 1301  , 55392  , 380 );
                        kernels[23] = compute_kernel(x,   156  , 169392  , 442  , 71696  , 572  , 156096  , 885  , 46352  , 1015  , 38352  , 1458  , 74096  , 414  , 156  , 40888  , 286  , 65840  , 442  , 44808  , 572  , 33208  , 1171  , 107984  , 2187  , 35288  , 225  , 156  , 104992  , 286  , 94272  , 572  , 45776  , 885  , 45648  , 1041  , 50816  , 1327  , 57664  , 349 );
                        kernels[24] = compute_kernel(x,   156  , 168384  , 442  , 69968  , 572  , 45008  , 729  , 108624  , 885  , 45840  , 1015  , 131904  , 430  , 156  , 41440  , 286  , 65248  , 442  , 44256  , 572  , 32528  , 1171  , 32232  , 1458  , 22864  , 221  , 156  , 105488  , 286  , 93888  , 442  , 42560  , 572  , 44688  , 885  , 45200  , 1770  , 41648  , 344 );
                        kernels[25] = compute_kernel(x,   156  , 172032  , 442  , 68848  , 572  , 43376  , 729  , 26816  , 885  , 49680  , 1015  , 34928  , 412  , 130  , 113992  , 286  , 68400  , 442  , 44496  , 572  , 35120  , 729  , 61848  , 885  , 33616  , 228  , 156  , 107008  , 286  , 94960  , 442  , 43728  , 572  , 44048  , 729  , 32672  , 885  , 46352  , 356 );
                        kernels[26] = compute_kernel(x,   156  , 173232  , 442  , 70064  , 572  , 42288  , 703  , 30592  , 885  , 52784  , 1015  , 116064  , 436  , 156  , 140224  , 286  , 66424  , 442  , 44976  , 572  , 35688  , 1171  , 30960  , 1458  , 24904  , 226  , 156  , 108128  , 286  , 328512  , 442  , 41184  , 572  , 45152  , 729  , 34000  , 885  , 48640  , 369 );
                        kernels[27] = compute_kernel(x,   156  , 170768  , 442  , 70592  , 572  , 46272  , 729  , 27136  , 885  , 48288  , 1015  , 37952  , 413  , 156  , 141432  , 286  , 65976  , 442  , 43072  , 572  , 34760  , 1171  , 34440  , 1458  , 24184  , 228  , 156  , 107328  , 286  , 93616  , 442  , 43856  , 572  , 44592  , 885  , 45056  , 2187  , 35424  , 357 );
                        kernels[28] = compute_kernel(x,   156  , 168176  , 442  , 69552  , 572  , 41616  , 729  , 27664  , 885  , 51200  , 1015  , 39680  , 439  , 156  , 41088  , 286  , 66256  , 442  , 45264  , 572  , 35448  , 1171  , 31264  , 1458  , 23400  , 219  , 156  , 106304  , 286  , 97520  , 442  , 43712  , 572  , 43520  , 729  , 32128  , 885  , 157040  , 371 );
                        kernels[29] = compute_kernel(x,   156  , 168160  , 442  , 65888  , 572  , 45728  , 729  , 29840  , 885  , 50320  , 1015  , 37264  , 424  , 156  , 40552  , 286  , 65904  , 442  , 42432  , 572  , 33864  , 1171  , 32112  , 1458  , 23848  , 227  , 130  , 308608  , 286  , 95584  , 442  , 42368  , 572  , 46048  , 703  , 52672  , 885  , 45008  , 358 );
                        kernels[30] = compute_kernel(x,   156  , 167600  , 442  , 71744  , 572  , 162064  , 729  , 28352  , 885  , 50768  , 1015  , 34624  , 444  , 156  , 41576  , 286  , 64024  , 442  , 44768  , 572  , 33248  , 729  , 24504  , 1171  , 31568  , 216  , 156  , 104608  , 286  , 95056  , 442  , 43392  , 572  , 46016  , 729  , 33456  , 885  , 45136  , 366 );
                        kernels[31] = compute_kernel(x,   130  , 434672  , 442  , 70768  , 572  , 47584  , 703  , 46064  , 885  , 47920  , 1015  , 41632  , 447  , 156  , 40624  , 286  , 63928  , 442  , 42432  , 572  , 34560  , 729  , 80920  , 1171  , 33592  , 214  , 156  , 104432  , 286  , 94496  , 442  , 44176  , 572  , 44544  , 729  , 31984  , 885  , 44704  , 352 );
                        kernels[32] = compute_kernel(x,   156  , 175520  , 468  , 134304  , 598  , 48016  , 729  , 24784  , 885  , 53184  , 1041  , 30016  , 431  , 156  , 40984  , 286  , 59112  , 442  , 46600  , 598  , 33432  , 1067  , 31696  , 1197  , 26688  , 227  , 156  , 122384  , 312  , 71120  , 442  , 42768  , 598  , 47456  , 755  , 26400  , 885  , 44864  , 365 );
                        kernels[33] = compute_kernel(x,   130  , 434176  , 416  , 107488  , 572  , 41872  , 729  , 97696  , 885  , 49648  , 1015  , 41424  , 443  , 156  , 40824  , 286  , 64832  , 442  , 44952  , 572  , 32536  , 1171  , 30328  , 1458  , 25192  , 213  , 156  , 106400  , 286  , 94064  , 442  , 43520  , 572  , 44160  , 885  , 45600  , 1301  , 69296  , 346 );
                        kernels[34] = compute_kernel(x,   130  , 379056  , 286  , 51264  , 442  , 71264  , 598  , 128560  , 885  , 46752  , 1015  , 37008  , 420  , 156  , 41056  , 286  , 65840  , 442  , 45048  , 572  , 33360  , 1015  , 63696  , 1171  , 32928  , 224  , 156  , 107488  , 286  , 93856  , 572  , 46144  , 703  , 52384  , 885  , 43264  , 1327  , 63456  , 338 );
                        kernels[35] = compute_kernel(x,   130  , 223520  , 442  , 71632  , 572  , 47968  , 729  , 31200  , 885  , 48576  , 1015  , 36928  , 412  , 156  , 41680  , 286  , 65288  , 442  , 43200  , 572  , 108072  , 729  , 24152  , 1171  , 32448  , 226  , 156  , 106384  , 286  , 96928  , 442  , 43328  , 572  , 44288  , 729  , 108368  , 885  , 43840  , 361 );
                        kernels[36] = compute_kernel(x,   156  , 171328  , 442  , 68432  , 598  , 44816  , 885  , 49168  , 1015  , 40048  , 1119  , 40656  , 432  , 156  , 39128  , 286  , 65088  , 390  , 41352  , 598  , 31544  , 1197  , 21352  , 1484  , 18048  , 216  , 156  , 103664  , 312  , 61264  , 442  , 41136  , 546  , 53376  , 885  , 41632  , 1484  , 27072  , 353 );
                        kernels[37] = compute_kernel(x,   156  , 513184  , 442  , 71152  , 572  , 50256  , 729  , 92608  , 885  , 45952  , 1015  , 37792  , 441  , 156  , 41104  , 286  , 62624  , 442  , 43528  , 572  , 32616  , 703  , 32000  , 1171  , 32400  , 222  , 156  , 106656  , 286  , 97808  , 442  , 44640  , 572  , 45488  , 729  , 33424  , 885  , 44416  , 370 );
                        kernels[38] = compute_kernel(x,   156  , 445120  , 442  , 71984  , 572  , 45872  , 729  , 30544  , 885  , 49360  , 1015  , 39616  , 447  , 156  , 40600  , 286  , 64000  , 442  , 43464  , 572  , 32608  , 729  , 24048  , 1171  , 33208  , 215  , 156  , 105616  , 286  , 95696  , 442  , 45552  , 572  , 43168  , 729  , 33024  , 885  , 45840  , 352 );
                        kernels[39] = compute_kernel(x,   156  , 168192  , 442  , 69952  , 572  , 162336  , 885  , 49744  , 1015  , 37392  , 1145  , 37152  , 449  , 156  , 41096  , 286  , 64992  , 442  , 43704  , 572  , 34728  , 1171  , 33064  , 1458  , 24912  , 218  , 156  , 104528  , 286  , 94896  , 442  , 43568  , 572  , 45264  , 729  , 98384  , 885  , 42208  , 347 );
                        kernels[40] = compute_kernel(x,   156  , 172304  , 442  , 69168  , 572  , 50640  , 885  , 47088  , 1015  , 39360  , 1432  , 35936  , 445  , 156  , 39808  , 286  , 65936  , 442  , 44240  , 572  , 32288  , 1171  , 32056  , 1458  , 23840  , 213  , 156  , 107296  , 286  , 96384  , 442  , 44144  , 572  , 47104  , 885  , 146368  , 1301  , 65040  , 363 );
                        kernels[41] = compute_kernel(x,   156  , 171552  , 442  , 72496  , 572  , 50784  , 729  , 30208  , 859  , 122656  , 1015  , 39984  , 420  , 156  , 41040  , 312  , 131640  , 442  , 43704  , 572  , 33056  , 1171  , 32304  , 1458  , 23544  , 225  , 156  , 165744  , 286  , 92944  , 442  , 42160  , 572  , 45984  , 729  , 31104  , 885  , 42368  , 342 );
                        kernels[42] = compute_kernel(x,   156  , 165744  , 442  , 70000  , 572  , 47360  , 729  , 29728  , 885  , 48544  , 1015  , 40544  , 444  , 156  , 40704  , 286  , 65912  , 442  , 113192  , 572  , 33456  , 859  , 37456  , 1171  , 33144  , 217  , 156  , 107744  , 286  , 97392  , 442  , 42928  , 572  , 45760  , 729  , 33120  , 885  , 44944  , 370 );
                        kernels[43] = compute_kernel(x,   156  , 167152  , 442  , 71152  , 572  , 43664  , 729  , 29216  , 885  , 49296  , 1015  , 40384  , 425  , 156  , 41832  , 286  , 65152  , 442  , 44024  , 572  , 34840  , 729  , 72656  , 1171  , 102176  , 227  , 156  , 105776  , 286  , 95152  , 442  , 43536  , 572  , 44592  , 885  , 46912  , 1015  , 86800  , 363 );
                        kernels[44] = compute_kernel(x,   156  , 171648  , 286  , 63376  , 442  , 71760  , 572  , 45984  , 885  , 47984  , 1327  , 58640  , 415  , 156  , 42024  , 286  , 64824  , 442  , 44344  , 572  , 32448  , 755  , 31032  , 1171  , 32784  , 226  , 156  , 104624  , 286  , 94832  , 442  , 151024  , 572  , 45024  , 729  , 31744  , 885  , 44912  , 350 );
                        kernels[45] = compute_kernel(x,   26  , 98448  , 130  , 102880  , 208  , 25296  , 442  , 37888  , 572  , 30800  , 859  , 26704  , 329  , 52  , 72048  , 130  , 113216  , 208  , 16288  , 286  , 28928  , 416  , 23040  , 572  , 19552  , 265  , 26  , 130032  , 130  , 85792  , 208  , 40752  , 286  , 43616  , 572  , 27056  , 885  , 24000  , 398 );
                        kernels[46] = compute_kernel(x,   26  , 181344  , 130  , 221088  , 234  , 33504  , 416  , 28672  , 572  , 26480  , 833  , 57920  , 550  , 78  , 42952  , 208  , 27352  , 286  , 44272  , 390  , 16656  , 729  , 16712  , 1145  , 13040  , 180  , 26  , 122832  , 130  , 129888  , 208  , 23872  , 312  , 46256  , 885  , 52144  , 1562  , 29168  , 315 );
                        kernels[47] = compute_kernel(x,   156  , 168544  , 442  , 72832  , 572  , 40912  , 885  , 52208  , 1015  , 35632  , 2187  , 29200  , 444  , 156  , 41824  , 286  , 64328  , 442  , 43952  , 572  , 35008  , 1171  , 29944  , 1458  , 24456  , 217  , 156  , 105680  , 286  , 96352  , 442  , 123776  , 572  , 145568  , 729  , 34416  , 885  , 48816  , 349 );
                        kernels[48] = compute_kernel(x,   156  , 169792  , 442  , 72624  , 572  , 43312  , 729  , 27520  , 885  , 166352  , 1015  , 38432  , 413  , 156  , 39992  , 286  , 63264  , 442  , 44888  , 598  , 33328  , 1015  , 52536  , 1171  , 32912  , 227  , 156  , 107120  , 286  , 95264  , 442  , 124000  , 572  , 43504  , 729  , 33296  , 885  , 47728  , 360 );
                        kernels[49] = compute_kernel(x,   156  , 582832  , 442  , 73200  , 572  , 48000  , 729  , 31776  , 885  , 47088  , 1015  , 39632  , 443  , 130  , 115944  , 286  , 64232  , 442  , 43632  , 572  , 33144  , 1171  , 34248  , 1458  , 22440  , 221  , 156  , 106272  , 286  , 94512  , 442  , 44496  , 572  , 45568  , 885  , 45040  , 1458  , 30752  , 370 );
                        kernels[50] = compute_kernel(x,   156  , 169120  , 442  , 190592  , 572  , 49856  , 703  , 42880  , 885  , 47680  , 1015  , 37056  , 422  , 156  , 42120  , 286  , 66960  , 442  , 45232  , 572  , 32432  , 729  , 24312  , 1171  , 34640  , 227  , 156  , 107136  , 286  , 94720  , 442  , 42528  , 572  , 45376  , 729  , 33376  , 885  , 42224  , 339 );
                        kernels[51] = compute_kernel(x,   156  , 171888  , 442  , 214224  , 572  , 46864  , 729  , 30320  , 885  , 48560  , 1015  , 37760  , 450  , 156  , 42336  , 286  , 62912  , 442  , 45184  , 572  , 33240  , 1171  , 33792  , 1458  , 24624  , 221  , 156  , 107424  , 286  , 93856  , 442  , 43008  , 572  , 45216  , 729  , 33024  , 885  , 45664  , 347 );
                        kernels[52] = compute_kernel(x,   156  , 171840  , 442  , 227728  , 572  , 44496  , 885  , 48000  , 1015  , 40736  , 1301  , 58000  , 444  , 156  , 39488  , 286  , 64512  , 442  , 44992  , 572  , 36448  , 1171  , 28832  , 1458  , 25592  , 216  , 156  , 107200  , 286  , 96992  , 442  , 40880  , 572  , 44720  , 885  , 44512  , 1900  , 41280  , 358 );
                        kernels[53] = compute_kernel(x,   156  , 170432  , 442  , 70032  , 572  , 47360  , 729  , 29520  , 885  , 46608  , 1015  , 103360  , 416  , 156  , 42936  , 286  , 66320  , 442  , 44736  , 572  , 33592  , 1171  , 32136  , 1458  , 22592  , 225  , 156  , 107568  , 286  , 95248  , 442  , 42224  , 572  , 45488  , 729  , 32816  , 885  , 150352  , 347 );
                        kernels[54] = compute_kernel(x,   156  , 167856  , 442  , 70144  , 572  , 48624  , 885  , 166080  , 1015  , 36960  , 1432  , 34768  , 445  , 156  , 40920  , 286  , 64504  , 442  , 42568  , 598  , 31656  , 1171  , 35544  , 2187  , 37464  , 220  , 156  , 106832  , 286  , 95984  , 442  , 42832  , 572  , 47072  , 729  , 33600  , 885  , 45696  , 371 );
                        kernels[55] = compute_kernel(x,   156  , 168624  , 442  , 71184  , 598  , 129072  , 729  , 29552  , 885  , 48224  , 1015  , 38320  , 430  , 156  , 42472  , 286  , 65280  , 442  , 43936  , 572  , 32864  , 1171  , 32488  , 1458  , 24552  , 224  , 156  , 107584  , 286  , 315712  , 442  , 42736  , 572  , 46544  , 885  , 67184  , 1614  , 35984  , 345 );
                        kernels[56] = compute_kernel(x,   156  , 171424  , 442  , 65920  , 572  , 48000  , 729  , 31264  , 885  , 46928  , 1015  , 37136  , 410  , 130  , 115872  , 286  , 65608  , 442  , 43552  , 572  , 31464  , 859  , 31184  , 1171  , 33208  , 226  , 156  , 108032  , 286  , 93520  , 442  , 42464  , 572  , 47840  , 729  , 32480  , 885  , 43552  , 358 );
                        kernels[57] = compute_kernel(x,   156  , 576752  , 442  , 67104  , 572  , 47312  , 729  , 29248  , 885  , 45056  , 1015  , 38496  , 410  , 156  , 41328  , 286  , 64856  , 442  , 44520  , 572  , 48808  , 1171  , 31088  , 1458  , 24224  , 225  , 156  , 107536  , 286  , 97392  , 442  , 40624  , 572  , 45088  , 885  , 44416  , 1588  , 31712  , 361 );
                        kernels[58] = compute_kernel(x,   156  , 170144  , 442  , 70048  , 572  , 159152  , 729  , 27472  , 885  , 48736  , 1015  , 39680  , 444  , 156  , 40984  , 286  , 63416  , 442  , 45400  , 572  , 34120  , 1171  , 31752  , 1458  , 23688  , 215  , 156  , 108080  , 286  , 97472  , 442  , 42992  , 572  , 151104  , 729  , 32128  , 885  , 47072  , 359 );
                        kernels[59] = compute_kernel(x,   156  , 168224  , 442  , 67088  , 572  , 45136  , 729  , 28272  , 859  , 116560  , 1015  , 39920  , 412  , 156  , 41704  , 286  , 226024  , 442  , 43080  , 572  , 34536  , 1171  , 29864  , 1458  , 24584  , 227  , 156  , 106320  , 286  , 95984  , 442  , 43328  , 572  , 44752  , 729  , 32224  , 885  , 43584  , 358 );
                        kernels[60] = compute_kernel(x,   156  , 168608  , 442  , 69904  , 572  , 48096  , 729  , 86976  , 885  , 46144  , 1015  , 40400  , 447  , 156  , 40448  , 286  , 64936  , 442  , 43832  , 572  , 34616  , 1171  , 32680  , 1458  , 24696  , 217  , 130  , 141216  , 286  , 94528  , 442  , 43504  , 572  , 45088  , 729  , 33296  , 885  , 44768  , 346 );
                        kernels[61] = compute_kernel(x,   156  , 169728  , 442  , 68528  , 572  , 45856  , 885  , 47088  , 1015  , 38192  , 1744  , 52640  , 416  , 156  , 41120  , 286  , 66952  , 442  , 42208  , 572  , 32608  , 1171  , 32568  , 1744  , 40472  , 225  , 156  , 318896  , 286  , 93808  , 442  , 44096  , 572  , 45808  , 755  , 46944  , 885  , 46464  , 349 );
                        kernels[62] = compute_kernel(x,   156  , 169808  , 442  , 70800  , 572  , 48896  , 729  , 28272  , 885  , 47744  , 1015  , 37504  , 434  , 156  , 41040  , 286  , 219680  , 442  , 43288  , 572  , 31112  , 1171  , 32968  , 2187  , 31392  , 222  , 156  , 105520  , 286  , 95120  , 442  , 43584  , 572  , 46080  , 729  , 31712  , 885  , 43504  , 346 );
                        kernels[63] = compute_kernel(x,   156  , 168976  , 442  , 68032  , 572  , 44016  , 729  , 26320  , 885  , 50080  , 1015  , 39664  , 421  , 156  , 41336  , 286  , 66264  , 442  , 42456  , 572  , 34080  , 1171  , 29336  , 2187  , 31024  , 228  , 130  , 269424  , 286  , 96880  , 442  , 40560  , 572  , 45952  , 729  , 32224  , 885  , 47024  , 360 );
                        kernels[64] = compute_kernel(x,   156  , 172896  , 442  , 72704  , 572  , 45040  , 729  , 104608  , 885  , 47056  , 1015  , 37408  , 419  , 156  , 40160  , 286  , 66880  , 442  , 45368  , 572  , 33440  , 1171  , 33528  , 1458  , 24656  , 228  , 156  , 324768  , 286  , 319920  , 442  , 43312  , 572  , 45024  , 729  , 32896  , 885  , 46608  , 346 );
                        kernels[65] = compute_kernel(x,   156  , 171344  , 442  , 71968  , 572  , 44544  , 729  , 29136  , 885  , 50384  , 1015  , 37344  , 410  , 156  , 42528  , 286  , 67184  , 442  , 48344  , 572  , 32208  , 729  , 23424  , 1171  , 33432  , 229  , 156  , 103712  , 286  , 324864  , 442  , 44032  , 572  , 44928  , 729  , 33072  , 885  , 45872  , 362 );
                        kernels[66] = compute_kernel(x,   156  , 172032  , 442  , 73152  , 572  , 47808  , 885  , 48928  , 1484  , 45568  , 1770  , 41296  , 443  , 156  , 125424  , 286  , 66368  , 442  , 44576  , 572  , 32648  , 729  , 24048  , 1171  , 33608  , 224  , 156  , 110432  , 286  , 95184  , 442  , 42256  , 572  , 45376  , 729  , 33152  , 885  , 46208  , 349 );
                        kernels[67] = compute_kernel(x,   156  , 171840  , 442  , 72128  , 572  , 45536  , 729  , 31040  , 885  , 51360  , 1015  , 38384  , 450  , 156  , 41096  , 286  , 64264  , 442  , 45176  , 572  , 32656  , 885  , 36408  , 1171  , 116008  , 217  , 156  , 108352  , 286  , 94352  , 442  , 43728  , 572  , 44288  , 729  , 32608  , 885  , 47312  , 351 );
                        kernels[68] = compute_kernel(x,   156  , 260928  , 442  , 66336  , 572  , 42944  , 729  , 26448  , 885  , 51152  , 1015  , 38432  , 426  , 156  , 140288  , 286  , 64048  , 442  , 43096  , 572  , 32208  , 755  , 26072  , 1171  , 30760  , 224  , 156  , 107248  , 286  , 95472  , 442  , 41360  , 572  , 43616  , 729  , 31664  , 885  , 48992  , 345 );
                        kernels[69] = compute_kernel(x,   156  , 170800  , 286  , 33072  , 442  , 72960  , 572  , 46144  , 885  , 51360  , 1015  , 36640  , 447  , 156  , 42128  , 286  , 66056  , 442  , 45728  , 572  , 32536  , 1171  , 32696  , 1458  , 23096  , 215  , 156  , 106592  , 286  , 92400  , 442  , 42096  , 572  , 45936  , 729  , 33296  , 885  , 49552  , 349 );
                        kernels[70] = compute_kernel(x,   156  , 164752  , 442  , 71808  , 572  , 45376  , 729  , 30096  , 885  , 50272  , 1015  , 38704  , 414  , 156  , 42568  , 286  , 66840  , 442  , 46464  , 572  , 30408  , 1171  , 34032  , 1458  , 23192  , 226  , 156  , 110144  , 312  , 206000  , 442  , 44832  , 572  , 43968  , 729  , 29952  , 885  , 118720  , 361 );
                        kernels[71] = compute_kernel(x,   156  , 583216  , 312  , 52000  , 442  , 72016  , 572  , 47760  , 885  , 47376  , 1327  , 64800  , 421  , 156  , 42160  , 286  , 65128  , 442  , 43936  , 572  , 31512  , 1041  , 33672  , 1171  , 33248  , 225  , 156  , 110576  , 286  , 93168  , 442  , 43088  , 572  , 44880  , 729  , 30688  , 885  , 44208  , 340 );
                        kernels[72] = compute_kernel(x,   156  , 171744  , 442  , 73824  , 572  , 50592  , 885  , 48288  , 1015  , 37776  , 1744  , 52144  , 444  , 156  , 125576  , 286  , 66400  , 442  , 46128  , 572  , 30840  , 1171  , 34376  , 1744  , 28640  , 226  , 156  , 108416  , 286  , 95376  , 442  , 43712  , 572  , 45536  , 885  , 44848  , 1327  , 58832  , 371 );
                        kernels[73] = compute_kernel(x,   26  , 193712  , 104  , 67936  , 182  , 34848  , 260  , 17312  , 338  , 9984  , 755  , 9648  , 485  , 78  , 67856  , 182  , 38616  , 260  , 28572  , 338  , 9668  , 677  , 7124  , 911  , 9504  , 214  , 26  , 177312  , 104  , 136384  , 234  , 38304  , 312  , 18848  , 390  , 13424  , 911  , 10592  , 381 );
                        kernels[74] = compute_kernel(x,   156  , 174752  , 442  , 248160  , 572  , 51088  , 729  , 31200  , 885  , 48976  , 1015  , 35184  , 444  , 156  , 41832  , 286  , 64168  , 442  , 44984  , 572  , 32264  , 729  , 24712  , 1171  , 34312  , 227  , 156  , 109056  , 286  , 97424  , 442  , 42464  , 572  , 45696  , 729  , 31328  , 885  , 44304  , 372 );
                        kernels[75] = compute_kernel(x,   156  , 178272  , 442  , 69168  , 598  , 52656  , 755  , 23152  , 885  , 47312  , 1041  , 32672  , 447  , 156  , 44488  , 286  , 58840  , 442  , 44136  , 598  , 37248  , 1041  , 17544  , 1197  , 24912  , 221  , 156  , 110576  , 286  , 85040  , 442  , 142448  , 598  , 49056  , 885  , 40464  , 1926  , 28592  , 346 );
                        kernels[76] = compute_kernel(x,   156  , 581072  , 442  , 71616  , 572  , 45968  , 729  , 30752  , 885  , 47120  , 1015  , 35952  , 412  , 156  , 42288  , 286  , 65472  , 442  , 44512  , 572  , 31800  , 1041  , 39840  , 1171  , 35648  , 230  , 156  , 108352  , 286  , 94256  , 442  , 43360  , 572  , 44976  , 885  , 45744  , 1458  , 30560  , 363 );
                        kernels[77] = compute_kernel(x,   130  , 429536  , 442  , 71696  , 572  , 48304  , 729  , 28944  , 885  , 50752  , 1015  , 37312  , 448  , 156  , 43984  , 286  , 64600  , 442  , 43400  , 572  , 32848  , 1197  , 46048  , 1458  , 22560  , 216  , 156  , 105872  , 286  , 95312  , 442  , 43696  , 572  , 45504  , 885  , 45280  , 1614  , 36864  , 355 );
                        kernels[78] = compute_kernel(x,   156  , 171280  , 442  , 70528  , 572  , 47808  , 729  , 27120  , 885  , 52064  , 1015  , 34624  , 415  , 156  , 41984  , 286  , 66352  , 416  , 69376  , 885  , 42744  , 1171  , 33768  , 1458  , 75208  , 227  , 156  , 106048  , 286  , 97280  , 442  , 122656  , 572  , 46704  , 885  , 48656  , 1015  , 81664  , 353 );
                        kernels[79] = compute_kernel(x,   156  , 259216  , 442  , 71440  , 572  , 48112  , 703  , 32048  , 885  , 49424  , 1015  , 36736  , 449  , 156  , 40400  , 286  , 65280  , 442  , 45320  , 572  , 30904  , 1015  , 57640  , 1171  , 33864  , 215  , 156  , 108400  , 286  , 95968  , 442  , 42496  , 572  , 45424  , 703  , 31568  , 885  , 46400  , 350 );
                        kernels[80] = compute_kernel(x,   156  , 173776  , 442  , 70512  , 572  , 47936  , 729  , 30416  , 885  , 48512  , 1015  , 36432  , 415  , 130  , 113520  , 286  , 66648  , 442  , 45624  , 572  , 31808  , 1171  , 34320  , 1458  , 23200  , 229  , 156  , 109072  , 286  , 94832  , 442  , 44320  , 572  , 45408  , 729  , 31184  , 885  , 45296  , 360 );
                        kernels[81] = compute_kernel(x,   156  , 168720  , 442  , 72000  , 572  , 46288  , 703  , 40336  , 885  , 49776  , 1015  , 34624  , 413  , 156  , 108304  , 286  , 66424  , 442  , 44848  , 572  , 32568  , 1171  , 84936  , 1458  , 25216  , 229  , 156  , 107312  , 286  , 96176  , 442  , 141056  , 572  , 45024  , 729  , 31936  , 885  , 45408  , 362 );
                        kernels[82] = compute_kernel(x,   156  , 173136  , 442  , 70976  , 572  , 48368  , 703  , 32160  , 885  , 49504  , 1015  , 130832  , 421  , 156  , 41432  , 286  , 67280  , 442  , 44952  , 572  , 31104  , 1171  , 34264  , 1458  , 22520  , 228  , 156  , 108336  , 286  , 93952  , 442  , 41808  , 572  , 46656  , 885  , 44960  , 1458  , 29712  , 345 );
                        kernels[83] = compute_kernel(x,   156  , 172560  , 442  , 74384  , 572  , 46080  , 885  , 76816  , 1041  , 39536  , 1301  , 52400  , 414  , 156  , 41016  , 286  , 104248  , 442  , 44720  , 572  , 32272  , 1171  , 33632  , 1458  , 24632  , 229  , 156  , 370272  , 286  , 94944  , 468  , 47328  , 572  , 45760  , 729  , 31648  , 885  , 45440  , 363 );
                        kernels[84] = compute_kernel(x,   156  , 169248  , 442  , 70880  , 572  , 45648  , 755  , 38256  , 885  , 171072  , 1015  , 40320  , 447  , 156  , 41808  , 286  , 63176  , 442  , 44144  , 572  , 32624  , 1171  , 34680  , 1458  , 22504  , 214  , 156  , 109472  , 286  , 94704  , 442  , 44368  , 572  , 45600  , 729  , 33360  , 885  , 47248  , 351 );
                        kernels[85] = compute_kernel(x,   156  , 170160  , 442  , 71760  , 572  , 45216  , 729  , 28720  , 885  , 48176  , 1015  , 38656  , 413  , 156  , 41928  , 286  , 67856  , 442  , 44720  , 572  , 32112  , 1171  , 32632  , 1458  , 23488  , 229  , 156  , 108336  , 312  , 203664  , 442  , 42752  , 572  , 43488  , 729  , 32576  , 885  , 46224  , 360 );
                        kernels[86] = compute_kernel(x,   156  , 169360  , 442  , 71136  , 572  , 48256  , 885  , 48992  , 1015  , 40544  , 1171  , 38080  , 447  , 156  , 41696  , 286  , 63688  , 442  , 44144  , 572  , 32992  , 1171  , 33048  , 1458  , 22368  , 215  , 156  , 106832  , 286  , 95824  , 442  , 42848  , 572  , 151680  , 729  , 48864  , 885  , 45872  , 349 );
                        kernels[87] = compute_kernel(x,   156  , 565760  , 442  , 72512  , 572  , 44592  , 729  , 29936  , 885  , 47648  , 1015  , 38352  , 413  , 156  , 139952  , 286  , 66008  , 442  , 44680  , 598  , 29040  , 1171  , 33448  , 1744  , 37896  , 227  , 156  , 106288  , 286  , 95696  , 442  , 43216  , 572  , 45328  , 729  , 31200  , 885  , 43952  , 362 );
                        kernels[88] = compute_kernel(x,   156  , 174768  , 442  , 71440  , 572  , 45248  , 885  , 50896  , 1015  , 33648  , 1588  , 35184  , 419  , 156  , 42040  , 286  , 66088  , 442  , 45960  , 572  , 32104  , 729  , 24144  , 1171  , 119936  , 230  , 130  , 300992  , 286  , 94800  , 416  , 66720  , 572  , 45280  , 755  , 58432  , 885  , 45280  , 346 );
                        kernels[89] = compute_kernel(x,   156  , 579712  , 442  , 72496  , 572  , 46800  , 729  , 30944  , 885  , 50960  , 1015  , 35712  , 444  , 156  , 40952  , 286  , 65360  , 442  , 44816  , 572  , 32904  , 1171  , 34352  , 1458  , 23728  , 227  , 156  , 108032  , 286  , 96224  , 442  , 43040  , 572  , 43632  , 885  , 47872  , 2187  , 34944  , 375 );
                        kernels[90] = compute_kernel(x,   156  , 173040  , 442  , 71216  , 598  , 144400  , 729  , 28464  , 885  , 178272  , 1015  , 36960  , 447  , 156  , 41416  , 286  , 64776  , 442  , 44440  , 572  , 31472  , 1171  , 33232  , 1614  , 40768  , 217  , 156  , 110800  , 286  , 97328  , 442  , 42480  , 572  , 45376  , 729  , 31648  , 885  , 47536  , 364 );
                        kernels[91] = compute_kernel(x,   156  , 169488  , 442  , 73376  , 572  , 46992  , 729  , 97808  , 885  , 53680  , 1015  , 39184  , 451  , 156  , 41136  , 286  , 65968  , 442  , 132112  , 572  , 107592  , 729  , 24776  , 1171  , 34424  , 218  , 156  , 107424  , 286  , 96992  , 442  , 42672  , 572  , 45104  , 755  , 57120  , 885  , 48544  , 359 );
                        kernels[92] = compute_kernel(x,   156  , 169728  , 442  , 70864  , 572  , 47968  , 885  , 49568  , 1015  , 35680  , 1171  , 43040  , 443  , 156  , 42200  , 286  , 66736  , 442  , 43408  , 572  , 96632  , 1171  , 33120  , 1458  , 23536  , 219  , 156  , 109184  , 286  , 94768  , 442  , 43472  , 572  , 45216  , 885  , 151472  , 1458  , 102688  , 370 );
                        kernels[93] = compute_kernel(x,   156  , 169392  , 442  , 72480  , 572  , 44352  , 729  , 28640  , 885  , 51984  , 1041  , 80912  , 430  , 130  , 92128  , 286  , 104856  , 442  , 45288  , 598  , 76600  , 1171  , 34024  , 1744  , 28224  , 228  , 156  , 106336  , 286  , 95184  , 442  , 45888  , 572  , 45184  , 729  , 31728  , 885  , 47568  , 346 );
                        kernels[94] = compute_kernel(x,   156  , 171472  , 442  , 73872  , 572  , 49120  , 729  , 29360  , 885  , 52736  , 1015  , 34208  , 431  , 156  , 42008  , 286  , 65520  , 442  , 45232  , 572  , 32848  , 729  , 23160  , 1145  , 52392  , 231  , 156  , 107728  , 286  , 95936  , 442  , 42000  , 598  , 143248  , 729  , 33904  , 885  , 49648  , 368 );
                        kernels[95] = compute_kernel(x,   156  , 172928  , 442  , 67920  , 572  , 49536  , 729  , 29024  , 885  , 48480  , 1015  , 38816  , 414  , 156  , 42232  , 286  , 66616  , 442  , 43632  , 572  , 31864  , 1171  , 114104  , 1458  , 23536  , 228  , 156  , 108240  , 286  , 96144  , 442  , 41968  , 572  , 45952  , 729  , 30816  , 885  , 44816  , 361 );
                        kernels[96] = compute_kernel(x,   156  , 180392  , 286  , 36792  , 572  , 24280  , 703  , 29280  , 833  , 22992  , 989  , 30488  , 224  , 130  , 90072  , 286  , 7488  , 364  , 58864  , 442  , 20704  , 572  , 8776  , 833  , 7664  , 208  , 130  , 92368  , 208  , 54320  , 286  , 43624  , 364  , 35496  , 442  , 14808  , 703  , 14832  , 264 );
                        kernels[97] = compute_kernel(x,   130  , 71064  , 286  , 35208  , 494  , 66256  , 703  , 96528  , 859  , 54240  , 989  , 31888  , 219  , 130  , 88296  , 364  , 20920  , 442  , 19192  , 572  , 26584  , 833  , 12792  , 1822  , 8048  , 210  , 130  , 92336  , 208  , 54424  , 286  , 41056  , 364  , 34912  , 442  , 25920  , 703  , 5224  , 249 );
                        kernels[98] = compute_kernel(x,   130  , 71584  , 286  , 35904  , 494  , 24560  , 572  , 23720  , 677  , 40344  , 989  , 31408  , 220  , 130  , 87368  , 286  , 8272  , 364  , 21640  , 442  , 58568  , 833  , 8224  , 1822  , 8176  , 205  , 130  , 93432  , 208  , 55496  , 286  , 43808  , 364  , 36432  , 442  , 17120  , 624  , 5720  , 256 );
                        kernels[99] = compute_kernel(x,   130  , 71504  , 286  , 35928  , 364  , 23064  , 572  , 77760  , 703  , 96008  , 989  , 33264  , 219  , 130  , 88952  , 286  , 7832  , 364  , 19328  , 442  , 21928  , 859  , 22784  , 1822  , 7520  , 206  , 130  , 95168  , 208  , 54560  , 286  , 45480  , 364  , 35016  , 442  , 17616  , 911  , 9320  , 273 );
                        kernels[100] = compute_kernel(x,   130  , 70912  , 286  , 34936  , 364  , 23456  , 572  , 22960  , 703  , 27840  , 989  , 33024  , 219  , 130  , 88760  , 364  , 19616  , 442  , 19464  , 546  , 8400  , 833  , 8528  , 1822  , 8456  , 204  , 130  , 91728  , 208  , 198840  , 286  , 42224  , 364  , 35016  , 442  , 16208  , 859  , 11448  , 252 );
                        kernels[101] = compute_kernel(x,   156  , 66272  , 390  , 42800  , 546  , 25640  , 703  , 29848  , 859  , 24304  , 989  , 27984  , 222  , 156  , 87880  , 234  , 15856  , 390  , 26512  , 468  , 14928  , 546  , 11904  , 859  , 16488  , 200  , 156  , 79896  , 234  , 57176  , 312  , 21496  , 390  , 47392  , 624  , 25912  , 703  , 9008  , 265 );
                        kernels[102] = compute_kernel(x,   130  , 68816  , 286  , 37496  , 364  , 61856  , 442  , 32984  , 703  , 28232  , 989  , 32888  , 223  , 130  , 87264  , 364  , 21736  , 442  , 20240  , 572  , 8032  , 833  , 8168  , 1822  , 7760  , 220  , 130  , 275472  , 208  , 57328  , 312  , 44120  , 416  , 29072  , 494  , 12024  , 989  , 5696  , 250 );
                        kernels[103] = compute_kernel(x,   156  , 68368  , 286  , 24360  , 364  , 30272  , 546  , 26064  , 833  , 23424  , 989  , 33520  , 238  , 52  , 18888  , 156  , 81464  , 234  , 11856  , 390  , 24544  , 468  , 11704  , 546  , 9608  , 206  , 156  , 84440  , 234  , 54184  , 364  , 41360  , 442  , 13408  , 520  , 8408  , 989  , 6096  , 277 );
                        kernels[104] = compute_kernel(x,   156  , 207504  , 286  , 37440  , 494  , 22976  , 572  , 23800  , 703  , 29752  , 989  , 33680  , 225  , 156  , 197144  , 286  , 8192  , 364  , 21528  , 442  , 18336  , 572  , 8544  , 833  , 8632  , 204  , 130  , 93136  , 208  , 54096  , 286  , 45816  , 364  , 35600  , 442  , 16176  , 703  , 7992  , 262 );
                        kernels[105] = compute_kernel(x,   130  , 72504  , 286  , 35992  , 494  , 23536  , 572  , 25120  , 703  , 26120  , 989  , 32672  , 237  , 130  , 87872  , 364  , 22928  , 442  , 22424  , 572  , 32032  , 833  , 8064  , 1822  , 7832  , 208  , 26  , 8672  , 130  , 93384  , 208  , 56976  , 286  , 43648  , 364  , 36248  , 442  , 16144  , 278 );
                        kernels[106] = compute_kernel(x,   130  , 71136  , 286  , 35840  , 364  , 26176  , 572  , 23392  , 703  , 28640  , 989  , 33656  , 226  , 156  , 223304  , 364  , 24824  , 442  , 20784  , 572  , 7152  , 833  , 8256  , 1822  , 7224  , 218  , 130  , 91872  , 208  , 58360  , 286  , 41232  , 364  , 126936  , 442  , 15216  , 859  , 11672  , 255 );
                        kernels[107] = compute_kernel(x,   130  , 70880  , 286  , 36360  , 364  , 24504  , 572  , 25144  , 703  , 28392  , 989  , 32656  , 220  , 156  , 252264  , 364  , 23176  , 442  , 21816  , 572  , 8176  , 1822  , 7616  , 1900  , 8720  , 210  , 130  , 93000  , 208  , 56696  , 286  , 42088  , 364  , 35600  , 468  , 17800  , 703  , 5104  , 252 );
                        kernels[108] = compute_kernel(x,   130  , 72720  , 286  , 35024  , 364  , 26352  , 572  , 25896  , 703  , 27544  , 989  , 109496  , 233  , 130  , 87728  , 208  , 7496  , 364  , 24344  , 442  , 19488  , 572  , 8072  , 1692  , 9064  , 213  , 130  , 92344  , 208  , 59008  , 286  , 41528  , 364  , 39280  , 442  , 16856  , 781  , 6208  , 264 );
                        kernels[109] = compute_kernel(x,   130  , 70608  , 286  , 36008  , 416  , 107904  , 572  , 23320  , 703  , 27504  , 989  , 33736  , 220  , 130  , 86984  , 208  , 7608  , 390  , 34224  , 572  , 7824  , 833  , 8584  , 1822  , 7344  , 210  , 130  , 92032  , 208  , 57344  , 286  , 41336  , 364  , 36808  , 442  , 15232  , 703  , 15344  , 251 );
                        kernels[110] = compute_kernel(x,   130  , 70600  , 286  , 35360  , 364  , 26664  , 572  , 24328  , 703  , 28976  , 989  , 32136  , 228  , 130  , 302736  , 208  , 8272  , 364  , 25672  , 468  , 23472  , 572  , 7688  , 833  , 8656  , 219  , 130  , 92848  , 208  , 202208  , 286  , 41072  , 364  , 37560  , 442  , 14800  , 859  , 11632  , 256 );
                        kernels[111] = compute_kernel(x,   130  , 71112  , 286  , 35424  , 364  , 25296  , 494  , 67688  , 703  , 26296  , 989  , 33024  , 221  , 130  , 87608  , 364  , 24904  , 442  , 22168  , 703  , 9056  , 963  , 14640  , 1249  , 14904  , 213  , 130  , 308496  , 208  , 59824  , 286  , 40104  , 364  , 37216  , 442  , 15656  , 989  , 5272  , 253 );
                        kernels[112] = compute_kernel(x,   156  , 180688  , 286  , 35800  , 364  , 24928  , 572  , 63936  , 703  , 27944  , 989  , 31728  , 221  , 130  , 87008  , 338  , 23208  , 416  , 34840  , 494  , 9376  , 1562  , 10320  , 1978  , 14824  , 208  , 130  , 91040  , 208  , 57264  , 286  , 42760  , 364  , 37376  , 442  , 17016  , 703  , 5328  , 253 );
                        kernels[113] = compute_kernel(x,   130  , 70024  , 286  , 36472  , 364  , 23680  , 572  , 24640  , 703  , 27072  , 989  , 89472  , 223  , 130  , 85600  , 364  , 22096  , 442  , 20296  , 572  , 7800  , 781  , 14968  , 1822  , 8032  , 218  , 130  , 93968  , 208  , 59808  , 286  , 43104  , 364  , 120080  , 442  , 15616  , 703  , 5664  , 250 );
                        kernels[114] = compute_kernel(x,   130  , 71960  , 286  , 33832  , 494  , 24416  , 572  , 23880  , 703  , 27632  , 989  , 33120  , 222  , 130  , 88704  , 286  , 7176  , 416  , 113224  , 520  , 9144  , 833  , 8704  , 1822  , 7520  , 204  , 130  , 143784  , 208  , 58448  , 338  , 60096  , 442  , 53048  , 703  , 5104  , 1275  , 6216  , 255 );
                        kernels[115] = compute_kernel(x,   130  , 70392  , 234  , 23176  , 364  , 24424  , 572  , 24816  , 703  , 28992  , 989  , 32400  , 224  , 130  , 85824  , 364  , 23240  , 442  , 21936  , 572  , 8744  , 833  , 8408  , 1822  , 7128  , 220  , 130  , 92240  , 208  , 55904  , 286  , 43200  , 364  , 35632  , 442  , 16496  , 520  , 5872  , 250 );
                        kernels[116] = compute_kernel(x,   130  , 71320  , 286  , 37048  , 442  , 28856  , 572  , 24048  , 703  , 29848  , 989  , 30536  , 218  , 156  , 254584  , 286  , 8152  , 364  , 20856  , 442  , 20232  , 833  , 8936  , 1666  , 11656  , 206  , 130  , 93856  , 208  , 54528  , 286  , 46728  , 364  , 33624  , 442  , 17160  , 703  , 5416  , 253 );
                        kernels[117] = compute_kernel(x,   130  , 70280  , 286  , 34496  , 364  , 26904  , 572  , 23992  , 703  , 28288  , 989  , 30352  , 219  , 130  , 88240  , 286  , 7608  , 416  , 106360  , 572  , 8240  , 833  , 28784  , 1978  , 15376  , 204  , 130  , 315016  , 208  , 58192  , 338  , 98256  , 416  , 24512  , 494  , 40832  , 989  , 4808  , 254 );
                        kernels[118] = compute_kernel(x,   130  , 69992  , 286  , 34312  , 364  , 25728  , 572  , 23352  , 703  , 28536  , 989  , 31184  , 219  , 130  , 88096  , 364  , 24192  , 442  , 20376  , 572  , 7424  , 833  , 10912  , 1822  , 7992  , 213  , 52  , 6192  , 130  , 93776  , 208  , 59504  , 286  , 40336  , 364  , 38216  , 442  , 15192  , 253 );
                        kernels[119] = compute_kernel(x,   130  , 70176  , 286  , 36704  , 364  , 21648  , 572  , 23648  , 703  , 28456  , 989  , 32352  , 223  , 130  , 88880  , 364  , 20992  , 442  , 21632  , 572  , 8568  , 833  , 9256  , 1822  , 7744  , 221  , 130  , 94504  , 208  , 55336  , 286  , 154176  , 364  , 31800  , 442  , 17984  , 677  , 6320  , 250 );
                        kernels[120] = compute_kernel(x,   130  , 69896  , 286  , 35328  , 364  , 24152  , 572  , 23776  , 703  , 29688  , 989  , 30688  , 221  , 130  , 86568  , 364  , 72584  , 442  , 18632  , 572  , 8736  , 833  , 22128  , 1822  , 7056  , 218  , 130  , 93024  , 208  , 57432  , 286  , 42680  , 364  , 37192  , 442  , 15688  , 989  , 5056  , 252 );
                        kernels[121] = compute_kernel(x,   130  , 73104  , 286  , 33576  , 494  , 23984  , 572  , 23608  , 703  , 28424  , 989  , 30056  , 218  , 130  , 87536  , 286  , 7424  , 364  , 20136  , 442  , 20248  , 572  , 8472  , 833  , 8864  , 204  , 156  , 270720  , 286  , 44496  , 364  , 35152  , 468  , 19088  , 989  , 5008  , 1197  , 5736  , 271 );
                        kernels[122] = compute_kernel(x,   156  , 70688  , 260  , 30512  , 416  , 35288  , 572  , 86384  , 729  , 24216  , 989  , 23072  , 226  , 156  , 89848  , 234  , 11720  , 390  , 92368  , 572  , 13344  , 885  , 8784  , 1978  , 9136  , 204  , 156  , 85376  , 234  , 64176  , 338  , 30568  , 416  , 31304  , 494  , 11824  , 1015  , 6192  , 273 );
                        kernels[123] = compute_kernel(x,   130  , 112432  , 286  , 34816  , 364  , 25840  , 572  , 22568  , 703  , 28336  , 937  , 28848  , 233  , 130  , 88392  , 208  , 6808  , 364  , 22640  , 442  , 18800  , 572  , 7616  , 859  , 7672  , 212  , 130  , 93456  , 208  , 59984  , 286  , 43376  , 364  , 38192  , 442  , 13912  , 520  , 5232  , 272 );
                        kernels[124] = compute_kernel(x,   130  , 70944  , 286  , 36104  , 364  , 26672  , 572  , 22264  , 703  , 29376  , 989  , 29456  , 216  , 130  , 85640  , 260  , 7256  , 364  , 23160  , 442  , 20944  , 572  , 8392  , 859  , 8168  , 207  , 52  , 5360  , 130  , 91608  , 208  , 53272  , 286  , 42008  , 364  , 38624  , 442  , 15376  , 253 );
                        kernels[125] = compute_kernel(x,   156  , 211144  , 286  , 36008  , 364  , 24696  , 572  , 23984  , 703  , 30464  , 989  , 30336  , 226  , 130  , 87536  , 338  , 21904  , 416  , 31672  , 572  , 8192  , 755  , 8952  , 1848  , 8584  , 219  , 130  , 92520  , 208  , 58048  , 286  , 43184  , 364  , 37080  , 442  , 15408  , 703  , 5376  , 253 );
                        kernels[126] = compute_kernel(x,   130  , 71616  , 286  , 33048  , 364  , 24600  , 703  , 28664  , 859  , 55680  , 989  , 30448  , 216  , 130  , 87304  , 364  , 23720  , 442  , 22072  , 572  , 7832  , 833  , 9784  , 1406  , 17712  , 203  , 156  , 276528  , 234  , 32472  , 338  , 36728  , 416  , 22728  , 494  , 13592  , 677  , 8784  , 253 );
                        kernels[127] = compute_kernel(x,   130  , 70792  , 286  , 33800  , 364  , 24312  , 572  , 25728  , 703  , 29944  , 989  , 102776  , 232  , 130  , 87328  , 364  , 75984  , 442  , 18336  , 572  , 9456  , 833  , 8608  , 1822  , 7728  , 206  , 130  , 94352  , 208  , 60184  , 286  , 44352  , 364  , 37776  , 442  , 16528  , 703  , 5672  , 281 );
                        kernels[128] = compute_kernel(x,   130  , 69296  , 338  , 85800  , 416  , 30088  , 572  , 23992  , 703  , 29616  , 989  , 29880  , 234  , 130  , 84384  , 364  , 23232  , 442  , 19728  , 572  , 7648  , 833  , 26528  , 1432  , 7160  , 206  , 130  , 94248  , 208  , 59368  , 286  , 143376  , 364  , 37168  , 442  , 15088  , 520  , 5376  , 282 );
                        kernels[129] = compute_kernel(x,   130  , 236984  , 286  , 32368  , 364  , 24480  , 572  , 24024  , 703  , 30984  , 989  , 28664  , 217  , 130  , 88760  , 208  , 7688  , 364  , 24008  , 442  , 20576  , 572  , 9176  , 833  , 9296  , 203  , 130  , 95384  , 208  , 61352  , 286  , 43392  , 364  , 36616  , 442  , 13512  , 520  , 11392  , 265 );
                        kernels[130] = compute_kernel(x,   130  , 71880  , 286  , 33368  , 364  , 24432  , 572  , 23352  , 703  , 30776  , 989  , 30144  , 231  , 130  , 88496  , 364  , 23160  , 442  , 20640  , 572  , 9032  , 781  , 14312  , 859  , 7976  , 209  , 156  , 244536  , 234  , 31056  , 364  , 35952  , 442  , 14200  , 703  , 5240  , 833  , 4960  , 280 );
                        kernels[131] = compute_kernel(x,   130  , 73088  , 286  , 33392  , 364  , 25528  , 572  , 23280  , 703  , 29336  , 989  , 27352  , 228  , 130  , 86832  , 208  , 8336  , 364  , 22720  , 468  , 23472  , 572  , 8592  , 859  , 12816  , 204  , 130  , 282480  , 208  , 64304  , 286  , 40904  , 364  , 57184  , 442  , 14248  , 677  , 5808  , 285 );
                        kernels[132] = compute_kernel(x,   130  , 70616  , 286  , 106840  , 364  , 25992  , 520  , 28888  , 703  , 30392  , 989  , 26976  , 231  , 130  , 86328  , 364  , 24000  , 442  , 21208  , 572  , 9968  , 859  , 8592  , 1822  , 6872  , 206  , 130  , 96296  , 208  , 61032  , 286  , 44744  , 364  , 122888  , 442  , 15368  , 703  , 5744  , 283 );
                        kernels[133] = compute_kernel(x,   130  , 242736  , 286  , 34960  , 364  , 26616  , 572  , 23352  , 703  , 29608  , 989  , 28824  , 223  , 130  , 87728  , 208  , 8088  , 364  , 23976  , 442  , 19792  , 572  , 8352  , 833  , 8824  , 216  , 130  , 94864  , 208  , 63288  , 286  , 65512  , 364  , 37520  , 442  , 13696  , 703  , 5760  , 260 );
                        kernels[134] = compute_kernel(x,   156  , 163768  , 286  , 34760  , 416  , 98488  , 572  , 23952  , 703  , 29776  , 989  , 27888  , 231  , 130  , 86832  , 208  , 8064  , 364  , 22832  , 442  , 19552  , 572  , 9120  , 859  , 9976  , 211  , 130  , 95136  , 208  , 60904  , 286  , 45384  , 364  , 37984  , 442  , 14304  , 989  , 14256  , 267 );
                        kernels[135] = compute_kernel(x,   130  , 71464  , 286  , 33936  , 364  , 25952  , 572  , 24128  , 703  , 105872  , 989  , 27848  , 215  , 130  , 87424  , 286  , 7328  , 364  , 24256  , 442  , 18744  , 572  , 8800  , 859  , 8744  , 201  , 130  , 94880  , 208  , 63288  , 286  , 44560  , 364  , 36416  , 442  , 15792  , 520  , 20240  , 258 );
                        kernels[136] = compute_kernel(x,   130  , 72224  , 286  , 31880  , 364  , 25576  , 703  , 29832  , 833  , 55008  , 989  , 28264  , 216  , 130  , 86688  , 208  , 7776  , 364  , 24920  , 442  , 16584  , 572  , 8672  , 859  , 8224  , 215  , 130  , 94824  , 208  , 63328  , 286  , 148296  , 364  , 36760  , 442  , 14184  , 703  , 5752  , 258 );
                        kernels[137] = compute_kernel(x,   156  , 67888  , 364  , 30592  , 442  , 22752  , 729  , 28160  , 859  , 19840  , 1015  , 24752  , 219  , 130  , 276768  , 364  , 28936  , 442  , 22000  , 572  , 9440  , 963  , 17264  , 1952  , 7528  , 215  , 156  , 85672  , 234  , 44840  , 364  , 44544  , 442  , 17888  , 520  , 10760  , 859  , 6160  , 257 );
                        kernels[138] = compute_kernel(x,   130  , 72728  , 286  , 33568  , 364  , 26144  , 572  , 22432  , 703  , 29840  , 989  , 28712  , 216  , 130  , 84448  , 208  , 8568  , 364  , 24280  , 442  , 18464  , 572  , 7824  , 859  , 8736  , 201  , 130  , 93656  , 208  , 63456  , 286  , 152872  , 364  , 37048  , 442  , 14376  , 703  , 5392  , 265 );
                        kernels[139] = compute_kernel(x,   130  , 74216  , 208  , 34264  , 286  , 33944  , 364  , 25864  , 703  , 29800  , 989  , 29456  , 231  , 130  , 85840  , 208  , 7512  , 364  , 23328  , 442  , 19008  , 572  , 9168  , 859  , 8688  , 207  , 52  , 6024  , 130  , 315008  , 208  , 63664  , 286  , 46168  , 364  , 36576  , 442  , 14600  , 282 );
                        kernels[140] = compute_kernel(x,   130  , 74440  , 286  , 33672  , 364  , 25688  , 703  , 30584  , 833  , 47136  , 989  , 29040  , 234  , 130  , 86728  , 208  , 7976  , 364  , 22200  , 442  , 20144  , 572  , 8960  , 859  , 9168  , 213  , 156  , 254000  , 234  , 35160  , 364  , 36168  , 442  , 15928  , 520  , 5704  , 703  , 5448  , 259 );
                        kernels[141] = compute_kernel(x,   130  , 73296  , 286  , 32392  , 364  , 26288  , 572  , 24128  , 703  , 28840  , 989  , 28320  , 217  , 26  , 8736  , 130  , 87352  , 364  , 24152  , 442  , 18520  , 572  , 8848  , 859  , 8944  , 218  , 156  , 284656  , 234  , 36336  , 364  , 37160  , 442  , 12936  , 520  , 5136  , 703  , 5368  , 261 );
                        kernels[142] = compute_kernel(x,   130  , 72112  , 338  , 29488  , 416  , 22976  , 703  , 23088  , 833  , 25512  , 989  , 23784  , 225  , 130  , 85040  , 208  , 8776  , 364  , 20576  , 442  , 14808  , 833  , 8472  , 1822  , 7848  , 211  , 130  , 136400  , 208  , 79944  , 286  , 43512  , 364  , 25112  , 442  , 13160  , 703  , 6760  , 276 );
                        kernels[143] = compute_kernel(x,   130  , 72080  , 286  , 31728  , 364  , 26256  , 572  , 25520  , 703  , 29864  , 989  , 27400  , 216  , 130  , 86816  , 208  , 8488  , 364  , 23384  , 442  , 55440  , 572  , 8384  , 859  , 9888  , 210  , 130  , 92800  , 234  , 121448  , 364  , 38368  , 442  , 12800  , 703  , 5136  , 859  , 14304  , 261 );
                        kernels[144] = compute_kernel(x,   26  , 84656  , 104  , 41560  , 234  , 20200  , 338  , 15120  , 650  , 13320  , 833  , 17464  , 285  , 26  , 30256  , 104  , 41684  , 182  , 14844  , 260  , 16160  , 364  , 13588  , 442  , 9892  , 171  , 52  , 146908  , 182  , 34596  , 286  , 13604  , 364  , 14676  , 468  , 8952  , 859  , 5712  , 243 );
                        kernels[145] = compute_kernel(x,   130  , 72336  , 286  , 33032  , 364  , 24480  , 572  , 24864  , 703  , 29544  , 989  , 27528  , 220  , 130  , 87800  , 208  , 21768  , 364  , 22344  , 442  , 60560  , 572  , 8736  , 833  , 9248  , 217  , 130  , 92400  , 208  , 65840  , 286  , 41608  , 364  , 36824  , 442  , 13520  , 703  , 4968  , 259 );
                        kernels[146] = compute_kernel(x,   130  , 71848  , 286  , 31128  , 364  , 25904  , 572  , 26360  , 703  , 29656  , 989  , 27352  , 216  , 130  , 292216  , 364  , 23184  , 442  , 16760  , 572  , 9176  , 859  , 10104  , 1432  , 12008  , 214  , 130  , 93648  , 208  , 68760  , 286  , 133144  , 364  , 37592  , 442  , 12256  , 1275  , 6784  , 261 );
                        kernels[147] = compute_kernel(x,   130  , 73520  , 286  , 31680  , 364  , 26880  , 572  , 26136  , 703  , 29688  , 989  , 28848  , 229  , 130  , 88480  , 234  , 10752  , 364  , 23824  , 442  , 17000  , 572  , 8480  , 859  , 9040  , 202  , 130  , 143488  , 208  , 72040  , 286  , 39920  , 364  , 36320  , 442  , 12880  , 703  , 5592  , 289 );
                        kernels[148] = compute_kernel(x,   130  , 72808  , 208  , 46576  , 286  , 48416  , 703  , 29072  , 833  , 42760  , 989  , 44336  , 230  , 130  , 87456  , 416  , 97056  , 494  , 10400  , 572  , 8984  , 859  , 10440  , 1822  , 20856  , 207  , 130  , 96848  , 208  , 67840  , 286  , 41776  , 364  , 36272  , 442  , 11144  , 989  , 4712  , 282 );
                        kernels[149] = compute_kernel(x,   130  , 72888  , 286  , 30344  , 364  , 25752  , 572  , 26088  , 703  , 28384  , 989  , 27104  , 223  , 130  , 89040  , 208  , 8512  , 364  , 22328  , 442  , 17152  , 572  , 8384  , 859  , 9960  , 214  , 130  , 313816  , 208  , 68120  , 286  , 40264  , 364  , 36680  , 442  , 11848  , 859  , 4520  , 260 );
                        kernels[150] = compute_kernel(x,   130  , 72008  , 286  , 116488  , 364  , 26184  , 729  , 49648  , 833  , 49760  , 989  , 28728  , 221  , 130  , 88000  , 208  , 9560  , 364  , 23336  , 442  , 19008  , 572  , 8144  , 859  , 9408  , 215  , 130  , 94200  , 208  , 68112  , 286  , 42672  , 364  , 37760  , 442  , 13584  , 520  , 5800  , 269 );
                        kernels[151] = compute_kernel(x,   130  , 72696  , 286  , 32816  , 364  , 26488  , 572  , 26984  , 703  , 30072  , 1015  , 33256  , 210  , 130  , 86504  , 364  , 23672  , 442  , 19880  , 572  , 9432  , 859  , 10240  , 1848  , 7904  , 205  , 130  , 92808  , 208  , 240016  , 286  , 41776  , 364  , 35800  , 442  , 12856  , 520  , 5152  , 261 );
                        kernels[152] = compute_kernel(x,   130  , 72936  , 286  , 31464  , 494  , 55168  , 572  , 27360  , 703  , 30816  , 989  , 26856  , 213  , 130  , 86456  , 208  , 8776  , 364  , 23464  , 442  , 66936  , 572  , 7656  , 859  , 9888  , 204  , 130  , 90832  , 208  , 240832  , 286  , 42064  , 364  , 36920  , 442  , 13784  , 520  , 5144  , 286 );
                        kernels[153] = compute_kernel(x,   156  , 68032  , 312  , 17496  , 442  , 25376  , 520  , 18504  , 677  , 28520  , 1015  , 23160  , 211  , 156  , 82200  , 364  , 28128  , 442  , 23320  , 650  , 6248  , 859  , 9136  , 1822  , 5352  , 207  , 26  , 9136  , 156  , 91120  , 234  , 46832  , 364  , 40464  , 442  , 18200  , 520  , 11352  , 260 );
                        kernels[154] = compute_kernel(x,   130  , 72776  , 286  , 31752  , 364  , 24512  , 572  , 27416  , 703  , 32200  , 989  , 26784  , 215  , 130  , 87432  , 208  , 8008  , 364  , 22640  , 442  , 22424  , 859  , 9784  , 1432  , 15880  , 203  , 156  , 288408  , 234  , 38888  , 364  , 34896  , 442  , 14456  , 703  , 5288  , 833  , 4376  , 278 );
                        kernels[155] = compute_kernel(x,   130  , 73560  , 286  , 32312  , 364  , 23920  , 572  , 27472  , 703  , 30576  , 989  , 27680  , 230  , 130  , 293832  , 208  , 8400  , 364  , 22608  , 442  , 22648  , 859  , 10120  , 937  , 14424  , 210  , 130  , 95344  , 208  , 70856  , 286  , 43160  , 364  , 34352  , 442  , 14080  , 703  , 15400  , 274 );
                        kernels[156] = compute_kernel(x,   130  , 72608  , 286  , 31200  , 364  , 22424  , 572  , 27960  , 703  , 31184  , 989  , 91200  , 211  , 130  , 89160  , 208  , 8920  , 364  , 22776  , 442  , 22952  , 859  , 9056  , 1848  , 7816  , 201  , 130  , 325944  , 208  , 68616  , 286  , 43760  , 364  , 31184  , 442  , 14448  , 703  , 4480  , 264 );
                        kernels[157] = compute_kernel(x,   130  , 70912  , 286  , 32392  , 364  , 23136  , 572  , 28424  , 703  , 31528  , 989  , 27136  , 215  , 130  , 134408  , 208  , 8568  , 286  , 7992  , 364  , 21184  , 442  , 23112  , 859  , 9008  , 215  , 130  , 97560  , 208  , 68320  , 286  , 43080  , 364  , 32624  , 442  , 13856  , 703  , 5456  , 265 );
                        kernels[158] = compute_kernel(x,   130  , 69000  , 286  , 39632  , 442  , 26256  , 572  , 22736  , 703  , 28000  , 989  , 31960  , 221  , 130  , 88664  , 286  , 11400  , 416  , 44168  , 494  , 20176  , 572  , 7904  , 1822  , 6976  , 224  , 130  , 94832  , 208  , 36864  , 286  , 58504  , 364  , 22584  , 442  , 22040  , 703  , 6168  , 252 );
                        kernels[159] = compute_kernel(x,   130  , 72016  , 286  , 44640  , 416  , 42776  , 572  , 20872  , 703  , 28520  , 989  , 36744  , 222  , 130  , 87120  , 286  , 12912  , 416  , 48632  , 546  , 20392  , 859  , 19008  , 1822  , 7304  , 218  , 130  , 93960  , 208  , 25896  , 286  , 62336  , 416  , 39784  , 494  , 6248  , 703  , 6808  , 251 );
                        kernels[160] = compute_kernel(x,   130  , 71488  , 286  , 40616  , 364  , 19664  , 546  , 25160  , 703  , 30272  , 989  , 31048  , 219  , 130  , 86552  , 286  , 11336  , 416  , 44168  , 859  , 8120  , 1692  , 12752  , 1822  , 7816  , 221  , 130  , 94536  , 208  , 38400  , 286  , 50280  , 364  , 26672  , 442  , 13920  , 520  , 6536  , 252 );
                        kernels[161] = compute_kernel(x,   78  , 7986  , 208  , 8896  , 338  , 3301  , 520  , 3589  , 833  , 2582  , 1458  , 2775  , 34  , 26  , 82648  , 130  , 43416  , 208  , 25784  , 286  , 6712  , 390  , 4928  , 1145  , 14952  , 272  , 26  , 112264  , 156  , 60736  , 234  , 14608  , 390  , 4304  , 468  , 4152  , 1197  , 3400  , 307 );
                        kernels[162] = compute_kernel(x,   234  , 5052  , 312  , 3884  , 468  , 6053  , 1067  , 9875  , 1275  , 5687  , 1432  , 9182  , 41  , 182  , 93680  , 260  , 15384  , 338  , 6696  , 781  , 7096  , 963  , 6448  , 1093  , 6728  , 255  , 182  , 143200  , 260  , 24576  , 338  , 9888  , 468  , 17408  , 650  , 6128  , 1796  , 5872  , 376 );
                        kernels[163] = compute_kernel(x,   286  , 5814  , 520  , 7649  , 937  , 4693  , 1171  , 5332  , 1275  , 6053  , 1432  , 7625  , 41  , 156  , 111448  , 260  , 5680  , 338  , 12000  , 781  , 7088  , 1275  , 5296  , 1432  , 5520  , 232  , 26  , 29248  , 156  , 268240  , 312  , 41168  , 390  , 3024  , 468  , 11888  , 1588  , 1904  , 405 );
                        kernels[164] = compute_kernel(x,   312  , 5802  , 520  , 6612  , 650  , 7260  , 963  , 4932  , 1249  , 4810  , 1432  , 8116  , 39  , 52  , 8888  , 156  , 125088  , 312  , 18760  , 781  , 9456  , 1119  , 6448  , 1588  , 5712  , 269  , 26  , 20608  , 156  , 190560  , 234  , 9840  , 312  , 7008  , 468  , 10544  , 1432  , 2176  , 352 );
                        kernels[165] = compute_kernel(x,   286  , 6384  , 494  , 4926  , 624  , 3955  , 1119  , 6165  , 1275  , 3946  , 1432  , 8082  , 34  , 26  , 10376  , 156  , 127656  , 234  , 5536  , 312  , 14080  , 781  , 7216  , 1119  , 17928  , 290  , 26  , 10864  , 156  , 188784  , 260  , 11440  , 364  , 6416  , 468  , 11328  , 1900  , 1856  , 344 );
                        kernels[166] = compute_kernel(x,   260  , 7298  , 520  , 8270  , 807  , 4842  , 1145  , 6132  , 1275  , 4968  , 1432  , 8544  , 39  , 156  , 133536  , 260  , 6864  , 338  , 6880  , 442  , 6864  , 807  , 7536  , 1119  , 7552  , 257  , 182  , 307360  , 286  , 16352  , 468  , 12080  , 1432  , 1664  , 1588  , 1936  , 1900  , 1920  , 376 );
                        kernels[167] = compute_kernel(x,   286  , 5576  , 364  , 5215  , 520  , 6399  , 781  , 4847  , 1275  , 5238  , 1432  , 8653  , 39  , 156  , 398352  , 338  , 11328  , 781  , 5728  , 963  , 5104  , 1119  , 7072  , 1588  , 4992  , 253  , 156  , 200576  , 312  , 8400  , 468  , 11376  , 1588  , 1760  , 1744  , 1744  , 1900  , 1808  , 385 );
                        kernels[168] = compute_kernel(x,   364  , 5118  , 520  , 5038  , 1119  , 5548  , 1197  , 4778  , 1275  , 5446  , 1432  , 8686  , 38  , 156  , 131528  , 312  , 10880  , 781  , 22832  , 1145  , 9048  , 1432  , 5592  , 1588  , 5792  , 258  , 182  , 339264  , 312  , 10320  , 468  , 11488  , 1432  , 1664  , 1588  , 1392  , 1900  , 1712  , 376 );
                        kernels[169] = compute_kernel(x,   260  , 5147  , 494  , 4415  , 937  , 5128  , 1119  , 17908  , 1275  , 4532  , 1432  , 8706  , 39  , 156  , 130672  , 260  , 6416  , 338  , 11984  , 468  , 12384  , 807  , 6224  , 1119  , 7216  , 256  , 26  , 1536  , 156  , 193632  , 260  , 9680  , 338  , 5104  , 468  , 11168  , 1588  , 1728  , 377 );
                        kernels[170] = compute_kernel(x,   312  , 38985  , 624  , 4791  , 937  , 17084  , 1093  , 4720  , 1275  , 3834  , 1432  , 8678  , 38  , 156  , 133216  , 312  , 23104  , 807  , 12432  , 1119  , 7216  , 1432  , 7056  , 1588  , 6032  , 255  , 156  , 198864  , 234  , 2704  , 312  , 5248  , 468  , 11104  , 624  , 2400  , 1588  , 2096  , 383 );
                        kernels[171] = compute_kernel(x,   234  , 4504  , 338  , 7119  , 520  , 6432  , 755  , 4052  , 963  , 5992  , 1432  , 8481  , 37  , 156  , 132664  , 312  , 18896  , 781  , 5392  , 1119  , 6568  , 1432  , 5360  , 1588  , 5616  , 256  , 156  , 531280  , 260  , 5008  , 338  , 5024  , 468  , 9584  , 1588  , 2000  , 1900  , 1728  , 379 );
                        kernels[172] = compute_kernel(x,   78  , 4319  , 260  , 15685  , 494  , 5152  , 937  , 5254  , 1249  , 4507  , 1432  , 6934  , 37  , 130  , 85296  , 208  , 46232  , 286  , 16728  , 364  , 8416  , 494  , 7704  , 807  , 6528  , 268  , 130  , 130896  , 208  , 68096  , 286  , 18576  , 364  , 8736  , 494  , 11856  , 1432  , 5840  , 352 );
                        kernels[173] = compute_kernel(x,   78  , 4528  , 494  , 5542  , 937  , 5756  , 1119  , 5742  , 1275  , 5450  , 1432  , 8804  , 35  , 182  , 226240  , 312  , 12160  , 572  , 5840  , 807  , 6368  , 963  , 7296  , 1119  , 23728  , 257  , 156  , 199520  , 234  , 10432  , 312  , 10464  , 468  , 8752  , 624  , 1728  , 1900  , 1664  , 378 );
                        kernels[174] = compute_kernel(x,   338  , 4432  , 494  , 6774  , 963  , 5344  , 1119  , 6306  , 1275  , 5022  , 1432  , 6998  , 41  , 52  , 15416  , 156  , 120360  , 234  , 10864  , 312  , 11848  , 468  , 6984  , 1119  , 7728  , 239  , 26  , 34176  , 156  , 183120  , 286  , 7536  , 364  , 2176  , 468  , 9536  , 624  , 2704  , 466 );
                        kernels[175] = compute_kernel(x,   78  , 12505  , 156  , 6393  , 234  , 2224  , 546  , 1775  , 624  , 2011  , 807  , 1418  , 33  , 26  , 103904  , 130  , 11072  , 208  , 5952  , 442  , 3688  , 598  , 2320  , 729  , 2552  , 301  , 26  , 200064  , 130  , 3408  , 208  , 1680  , 703  , 3296  , 781  , 3632  , 885  , 1696  , 254 );
                        kernels[176] = compute_kernel(x,   338  , 5580  , 416  , 5238  , 520  , 7098  , 598  , 10272  , 1119  , 5192  , 1432  , 8372  , 38  , 156  , 124064  , 312  , 13264  , 390  , 18352  , 781  , 6528  , 963  , 6320  , 1119  , 6368  , 241  , 52  , 17840  , 156  , 186800  , 234  , 10928  , 312  , 8864  , 468  , 8464  , 624  , 1696  , 386 );
                        kernels[177] = compute_kernel(x,   260  , 4368  , 338  , 4780  , 520  , 7652  , 937  , 4912  , 1275  , 12218  , 1432  , 10008  , 37  , 156  , 134376  , 312  , 18200  , 416  , 6392  , 781  , 6720  , 1432  , 7504  , 1562  , 8248  , 257  , 156  , 600512  , 260  , 5472  , 338  , 5808  , 468  , 9008  , 1588  , 2144  , 1900  , 5152  , 385 );
                        kernels[178] = compute_kernel(x,   312  , 43532  , 624  , 4424  , 937  , 8838  , 1119  , 6487  , 1249  , 14657  , 1432  , 7658  , 41  , 156  , 137376  , 312  , 26472  , 468  , 8160  , 963  , 11992  , 1119  , 7096  , 1900  , 6104  , 261  , 156  , 203216  , 338  , 2688  , 468  , 8048  , 650  , 2048  , 1588  , 1840  , 1900  , 1776  , 385 );
                        kernels[179] = compute_kernel(x,   260  , 4205  , 338  , 5449  , 598  , 5334  , 1275  , 4374  , 1432  , 29524  , 1770  , 4631  , 40  , 182  , 234064  , 312  , 16912  , 781  , 6112  , 963  , 6704  , 1093  , 6560  , 1432  , 7376  , 259  , 26  , 1328  , 156  , 200768  , 260  , 8544  , 338  , 5216  , 468  , 8656  , 1900  , 1504  , 389 );
                        kernels[180] = compute_kernel(x,   260  , 6854  , 546  , 16338  , 963  , 23645  , 1145  , 4323  , 1275  , 5103  , 1432  , 8402  , 39  , 156  , 135760  , 260  , 6728  , 338  , 38272  , 468  , 7432  , 807  , 6104  , 1432  , 7056  , 259  , 156  , 201568  , 260  , 7936  , 338  , 6128  , 468  , 9664  , 1588  , 1904  , 1900  , 1360  , 386 );
                        kernels[181] = compute_kernel(x,   312  , 41436  , 468  , 8721  , 781  , 9848  , 963  , 7358  , 1119  , 25279  , 1432  , 7527  , 40  , 156  , 133536  , 312  , 24976  , 468  , 11048  , 963  , 9248  , 1119  , 8312  , 1900  , 6208  , 262  , 78  , 1680  , 156  , 199760  , 234  , 2384  , 338  , 4288  , 468  , 6944  , 650  , 2256  , 389 );
                        kernels[182] = compute_kernel(x,   312  , 11742  , 624  , 4468  , 963  , 8788  , 1119  , 10562  , 1275  , 5096  , 1432  , 8880  , 46  , 156  , 457184  , 312  , 30192  , 468  , 8976  , 963  , 9776  , 1119  , 11040  , 1588  , 12448  , 268  , 156  , 207648  , 312  , 4080  , 468  , 2512  , 650  , 1648  , 1744  , 1168  , 1900  , 1760  , 388 );
                        kernels[183] = compute_kernel(x,   312  , 11423  , 494  , 3876  , 650  , 4935  , 963  , 4563  , 1119  , 9896  , 1458  , 7230  , 41  , 26  , 5856  , 156  , 136496  , 312  , 27360  , 963  , 10400  , 1119  , 11488  , 1640  , 5216  , 271  , 156  , 210000  , 312  , 6272  , 494  , 7456  , 650  , 2304  , 1614  , 1728  , 1926  , 2176  , 409 );
                        kernels[184] = compute_kernel(x,   312  , 10218  , 650  , 5266  , 963  , 5910  , 1119  , 8274  , 1301  , 4884  , 1458  , 8272  , 40  , 182  , 278368  , 312  , 29040  , 650  , 12960  , 963  , 7936  , 1119  , 10320  , 1458  , 6544  , 273  , 156  , 213168  , 312  , 4496  , 494  , 5520  , 650  , 1888  , 1614  , 1488  , 1926  , 6176  , 403 );
                        kernels[185] = compute_kernel(x,   338  , 10201  , 494  , 5559  , 650  , 4140  , 1145  , 9038  , 1301  , 3733  , 1432  , 5829  , 42  , 182  , 241616  , 338  , 22992  , 989  , 8304  , 1119  , 11248  , 1588  , 6192  , 2109  , 6560  , 272  , 26  , 4576  , 156  , 203536  , 234  , 8496  , 312  , 5744  , 494  , 8944  , 650  , 4032  , 426 );
                        kernels[186] = compute_kernel(x,   312  , 11683  , 468  , 4528  , 963  , 4725  , 1145  , 5948  , 1275  , 7054  , 1458  , 8078  , 39  , 156  , 140048  , 312  , 24336  , 494  , 7488  , 807  , 18304  , 1119  , 8928  , 1458  , 7264  , 270  , 182  , 435552  , 260  , 2240  , 338  , 6192  , 494  , 8672  , 624  , 1664  , 1926  , 6576  , 407 );
                        kernels[187] = compute_kernel(x,   338  , 33214  , 468  , 7654  , 650  , 4826  , 963  , 6888  , 1119  , 6314  , 1458  , 9498  , 41  , 156  , 138376  , 312  , 26760  , 468  , 7976  , 807  , 6656  , 989  , 15360  , 1145  , 24696  , 274  , 26  , 1872  , 182  , 440224  , 312  , 4256  , 494  , 4208  , 650  , 1360  , 1952  , 1712  , 423 );
                        kernels[188] = compute_kernel(x,   338  , 9889  , 494  , 3639  , 650  , 6062  , 1145  , 6702  , 1458  , 25349  , 1952  , 6246  , 36  , 156  , 140208  , 338  , 25312  , 650  , 4936  , 963  , 9744  , 1145  , 8352  , 1458  , 7512  , 276  , 26  , 2656  , 156  , 333648  , 312  , 6064  , 494  , 8208  , 650  , 1696  , 1952  , 2144  , 430 );
                        kernels[189] = compute_kernel(x,   312  , 10088  , 650  , 4480  , 911  , 5044  , 1119  , 13866  , 1301  , 4378  , 1458  , 8088  , 37  , 156  , 139280  , 312  , 103584  , 494  , 10192  , 963  , 9936  , 1145  , 9296  , 1484  , 6512  , 280  , 156  , 216960  , 338  , 4464  , 494  , 7760  , 650  , 2944  , 1640  , 1840  , 1952  , 1936  , 414 );
                        kernels[190] = compute_kernel(x,   338  , 9666  , 494  , 3416  , 650  , 5059  , 963  , 4933  , 1145  , 5995  , 1458  , 7014  , 37  , 156  , 139168  , 312  , 27600  , 833  , 7248  , 963  , 8272  , 1145  , 6448  , 1484  , 6240  , 279  , 26  , 2864  , 156  , 740912  , 338  , 5408  , 494  , 8384  , 650  , 2512  , 1952  , 2736  , 436 );
                        kernels[191] = compute_kernel(x,   286  , 5094  , 416  , 5473  , 781  , 4677  , 963  , 4903  , 1119  , 5191  , 1458  , 6679  , 36  , 156  , 110464  , 234  , 20840  , 338  , 31992  , 416  , 10600  , 494  , 10144  , 729  , 17456  , 264  , 156  , 157152  , 234  , 38608  , 364  , 64336  , 442  , 12352  , 520  , 9792  , 1249  , 12272  , 416 );
                        kernels[192] = compute_kernel(x,   312  , 9296  , 546  , 5016  , 859  , 4334  , 963  , 6910  , 1119  , 3972  , 1432  , 7303  , 37  , 156  , 138432  , 312  , 30480  , 468  , 10176  , 807  , 5672  , 963  , 9048  , 1119  , 6592  , 271  , 156  , 703360  , 260  , 3664  , 338  , 17440  , 468  , 9808  , 624  , 2896  , 1926  , 2048  , 407 );
                        kernels[193] = compute_kernel(x,   312  , 9144  , 520  , 8418  , 859  , 5742  , 963  , 8228  , 1067  , 3028  , 1432  , 8646  , 46  , 156  , 140128  , 312  , 26800  , 468  , 11920  , 650  , 6528  , 963  , 6560  , 1432  , 7008  , 275  , 182  , 383136  , 312  , 11792  , 468  , 15872  , 650  , 2544  , 1432  , 1680  , 1926  , 1952  , 398 );
                        kernels[194] = compute_kernel(x,   156  , 3170  , 312  , 12363  , 468  , 3150  , 650  , 3376  , 963  , 4658  , 1432  , 5413  , 36  , 156  , 141088  , 312  , 32288  , 494  , 8912  , 963  , 7952  , 1275  , 6224  , 1458  , 7200  , 272  , 156  , 695552  , 312  , 6736  , 390  , 1376  , 468  , 12064  , 624  , 2752  , 1926  , 2128  , 399 );
                        kernels[195] = compute_kernel(x,   312  , 10260  , 468  , 10936  , 546  , 6648  , 833  , 4806  , 963  , 7733  , 1458  , 13868  , 40  , 156  , 465440  , 312  , 29024  , 468  , 12624  , 624  , 6496  , 989  , 6512  , 1432  , 5504  , 278  , 156  , 209680  , 234  , 11760  , 312  , 9968  , 468  , 17424  , 650  , 2688  , 1926  , 2128  , 400 );
                        kernels[196] = compute_kernel(x,   312  , 10287  , 546  , 4512  , 963  , 6891  , 1041  , 3208  , 1275  , 3071  , 1432  , 8322  , 36  , 156  , 461920  , 312  , 31888  , 468  , 9056  , 963  , 7616  , 1119  , 5520  , 1432  , 7072  , 274  , 156  , 208288  , 234  , 2928  , 312  , 6128  , 468  , 12224  , 650  , 2256  , 1900  , 1904  , 405 );
                        kernels[197] = compute_kernel(x,   312  , 12785  , 468  , 3748  , 546  , 4631  , 963  , 4188  , 1432  , 7844  , 2083  , 3673  , 37  , 156  , 142096  , 312  , 96848  , 468  , 13536  , 650  , 5712  , 963  , 4352  , 1119  , 5200  , 275  , 26  , 1232  , 156  , 213168  , 312  , 9904  , 468  , 15056  , 650  , 2304  , 1926  , 1808  , 402 );
                        kernels[198] = compute_kernel(x,   312  , 11202  , 390  , 3915  , 989  , 6585  , 1380  , 7138  , 1458  , 3949  , 2057  , 6604  , 35  , 26  , 11744  , 156  , 138368  , 260  , 17968  , 338  , 23504  , 494  , 17072  , 963  , 9632  , 279  , 156  , 206032  , 260  , 5680  , 338  , 4032  , 416  , 5872  , 494  , 13744  , 650  , 6848  , 399 );
                        kernels[199] = compute_kernel(x,   312  , 11907  , 833  , 6947  , 963  , 5238  , 1093  , 6902  , 1458  , 6158  , 1640  , 4281  , 35  , 156  , 141136  , 312  , 25840  , 494  , 15944  , 650  , 7936  , 963  , 8392  , 1432  , 4912  , 289  , 182  , 449024  , 338  , 5600  , 494  , 14560  , 650  , 2928  , 1432  , 1568  , 1926  , 1840  , 412 );
                        kernels[200] = compute_kernel(x,   312  , 11751  , 494  , 4219  , 963  , 3793  , 1119  , 4404  , 1458  , 6769  , 2109  , 3237  , 35  , 156  , 141176  , 312  , 28592  , 494  , 12664  , 650  , 7352  , 963  , 10112  , 1301  , 5792  , 280  , 26  , 2400  , 182  , 461440  , 312  , 5056  , 494  , 10800  , 650  , 2864  , 2109  , 1616  , 432 );
                        kernels[201] = compute_kernel(x,   156  , 3439  , 312  , 11962  , 468  , 3863  , 963  , 4054  , 1119  , 3757  , 1458  , 5132  , 35  , 26  , 6624  , 156  , 140368  , 312  , 29688  , 494  , 10000  , 650  , 8104  , 963  , 9224  , 289  , 156  , 214320  , 338  , 4832  , 494  , 10960  , 650  , 2528  , 1614  , 1600  , 1926  , 1984  , 412 );
                        kernels[202] = compute_kernel(x,   156  , 4314  , 312  , 12159  , 494  , 4308  , 963  , 3303  , 1119  , 4440  , 1458  , 6628  , 36  , 156  , 485120  , 312  , 23648  , 494  , 13888  , 650  , 5920  , 963  , 5376  , 1119  , 5808  , 279  , 26  , 1584  , 156  , 215184  , 312  , 10144  , 494  , 13824  , 650  , 2704  , 1926  , 1488  , 420 );
                        kernels[203] = compute_kernel(x,   156  , 3321  , 312  , 11719  , 963  , 4578  , 1458  , 6097  , 1614  , 3646  , 2109  , 3369  , 36  , 156  , 144032  , 312  , 80640  , 468  , 16224  , 650  , 7504  , 963  , 11200  , 1458  , 5344  , 282  , 52  , 1936  , 182  , 450384  , 312  , 6368  , 494  , 11936  , 650  , 2512  , 1952  , 1600  , 432 );
                        kernels[204] = compute_kernel(x,   156  , 95688  , 286  , 57320  , 572  , 76208  , 703  , 130696  , 1015  , 33864  , 1874  , 43632  , 359  , 130  , 88792  , 286  , 70464  , 442  , 24872  , 729  , 27976  , 1041  , 34560  , 1171  , 27512  , 290  , 156  , 153760  , 312  , 74944  , 416  , 34272  , 572  , 53328  , 859  , 41104  , 1015  , 30224  , 462 );
                        kernels[205] = compute_kernel(x,   156  , 477408  , 286  , 50336  , 442  , 75920  , 729  , 31296  , 1301  , 45616  , 1432  , 35520  , 398  , 130  , 63856  , 286  , 41744  , 442  , 26208  , 729  , 29512  , 1171  , 26840  , 1406  , 20400  , 208  , 130  , 111424  , 286  , 152880  , 442  , 69072  , 572  , 44736  , 729  , 33008  , 1015  , 37776  , 448 );
                        kernels[206] = compute_kernel(x,   156  , 196032  , 286  , 70208  , 442  , 69184  , 572  , 58560  , 703  , 38336  , 859  , 46112  , 520  , 130  , 47888  , 286  , 50104  , 442  , 54672  , 572  , 28528  , 729  , 24576  , 1171  , 24192  , 212  , 130  , 91312  , 286  , 150032  , 442  , 54896  , 572  , 47984  , 729  , 27376  , 885  , 31008  , 400 );
                        kernels[207] = compute_kernel(x,   156  , 232496  , 442  , 37936  , 572  , 33712  , 703  , 49936  , 859  , 58944  , 1015  , 22112  , 560  , 130  , 72992  , 286  , 47720  , 442  , 33016  , 572  , 37480  , 729  , 29112  , 1380  , 28904  , 234  , 156  , 69928  , 286  , 93888  , 442  , 30744  , 572  , 38776  , 729  , 31040  , 859  , 36832  , 337 );
                        kernels[208] = compute_kernel(x,   156  , 233008  , 286  , 36384  , 442  , 85024  , 572  , 85680  , 859  , 48864  , 1301  , 27552  , 605  , 156  , 296624  , 286  , 68184  , 442  , 53768  , 572  , 36352  , 1015  , 85384  , 1458  , 32400  , 299  , 286  , 145328  , 442  , 174464  , 572  , 46224  , 729  , 40208  , 885  , 39936  , 1458  , 33776  , 352 );
                        kernels[209] = compute_kernel(x,   26  , 143272  , 104  , 52512  , 182  , 21520  , 286  , 31480  , 624  , 20920  , 859  , 22360  , 372  , 78  , 112992  , 156  , 28808  , 260  , 35576  , 338  , 17928  , 1145  , 13296  , 1406  , 21016  , 307  , 52  , 147616  , 182  , 40992  , 260  , 29424  , 338  , 16896  , 729  , 42032  , 2239  , 12368  , 377 );
                        kernels[210] = compute_kernel(x,   156  , 180560  , 442  , 68192  , 572  , 35328  , 703  , 35552  , 859  , 49024  , 1015  , 25792  , 467  , 156  , 114528  , 286  , 67600  , 442  , 67856  , 755  , 28784  , 1171  , 29824  , 1874  , 37104  , 348  , 130  , 115600  , 286  , 64400  , 442  , 36560  , 572  , 49184  , 729  , 32576  , 859  , 43424  , 351 );
                        kernels[211] = compute_kernel(x,   156  , 132528  , 286  , 52112  , 442  , 76656  , 546  , 62736  , 885  , 43984  , 1301  , 46672  , 396  , 130  , 114592  , 260  , 90736  , 572  , 41928  , 729  , 18736  , 1015  , 19368  , 1171  , 31760  , 348  , 156  , 156256  , 286  , 137856  , 442  , 50400  , 572  , 42768  , 885  , 129376  , 1015  , 32192  , 503 );
                        kernels[212] = compute_kernel(x,   130  , 100816  , 286  , 60864  , 442  , 60528  , 520  , 57248  , 1015  , 56144  , 1171  , 55520  , 355  , 130  , 92520  , 286  , 73800  , 442  , 16928  , 911  , 22152  , 1171  , 20688  , 1458  , 20336  , 293  , 130  , 191664  , 286  , 144048  , 442  , 40976  , 572  , 55152  , 859  , 39632  , 1770  , 28496  , 562 );
                        kernels[213] = compute_kernel(x,   156  , 152096  , 286  , 50256  , 442  , 29520  , 572  , 46256  , 859  , 144800  , 1275  , 40880  , 393  , 130  , 66088  , 286  , 76432  , 442  , 37240  , 572  , 63016  , 729  , 25640  , 1458  , 27240  , 257  , 156  , 179648  , 286  , 134224  , 442  , 32832  , 572  , 52016  , 885  , 31360  , 1015  , 31824  , 514 );
                        kernels[214] = compute_kernel(x,   156  , 300928  , 442  , 44640  , 572  , 50656  , 729  , 58656  , 859  , 39488  , 1015  , 43904  , 495  , 130  , 50376  , 286  , 72792  , 442  , 58432  , 729  , 31592  , 1145  , 46440  , 1458  , 24848  , 266  , 156  , 158416  , 312  , 50512  , 442  , 80576  , 572  , 51040  , 729  , 30816  , 859  , 35088  , 421 );
                        kernels[215] = compute_kernel(x,   156  , 237952  , 442  , 73728  , 546  , 69824  , 729  , 30896  , 885  , 32800  , 1015  , 58096  , 609  , 130  , 79176  , 286  , 52552  , 442  , 35520  , 572  , 28680  , 729  , 26448  , 1458  , 103992  , 255  , 312  , 250016  , 442  , 50352  , 572  , 40864  , 729  , 37040  , 885  , 34864  , 1458  , 28432  , 350 );
                        kernels[216] = compute_kernel(x,   156  , 231280  , 286  , 37792  , 442  , 91696  , 572  , 80528  , 729  , 30992  , 859  , 67248  , 565  , 156  , 97264  , 286  , 77000  , 442  , 69296  , 572  , 38336  , 1171  , 26280  , 1458  , 30560  , 347  , 312  , 237744  , 416  , 98112  , 572  , 48464  , 859  , 42160  , 1301  , 80928  , 1588  , 62576  , 365 );
                        kernels[217] = compute_kernel(x,   156  , 203920  , 442  , 83152  , 572  , 39856  , 729  , 49424  , 1015  , 40816  , 1301  , 40096  , 538  , 156  , 110320  , 286  , 73008  , 442  , 77440  , 572  , 42880  , 1015  , 25152  , 1171  , 28608  , 348  , 156  , 89088  , 286  , 99304  , 572  , 54424  , 859  , 47192  , 1301  , 111160  , 1744  , 61400  , 359 );
                        kernels[218] = compute_kernel(x,   156  , 171600  , 442  , 44256  , 572  , 82160  , 859  , 60800  , 1015  , 52128  , 1458  , 29712  , 419  , 156  , 189632  , 286  , 55552  , 442  , 49584  , 598  , 20688  , 1171  , 30368  , 1744  , 46736  , 347  , 156  , 137456  , 286  , 49040  , 442  , 31184  , 572  , 38848  , 859  , 43552  , 1301  , 27840  , 375 );
                        kernels[219] = compute_kernel(x,   156  , 134768  , 286  , 59456  , 442  , 39696  , 572  , 60384  , 859  , 55696  , 1041  , 44096  , 392  , 156  , 74480  , 312  , 154264  , 442  , 21432  , 572  , 34904  , 729  , 20672  , 1458  , 23952  , 266  , 156  , 183712  , 286  , 157056  , 442  , 36192  , 572  , 55632  , 885  , 29184  , 1015  , 29760  , 520 );
                        kernels[220] = compute_kernel(x,   156  , 173264  , 286  , 39376  , 442  , 36944  , 572  , 110880  , 729  , 53664  , 1015  , 161760  , 419  , 130  , 55720  , 286  , 74880  , 442  , 53016  , 572  , 36304  , 729  , 32744  , 1458  , 61112  , 252  , 156  , 172224  , 286  , 100368  , 442  , 34480  , 572  , 50192  , 729  , 25904  , 885  , 31920  , 482 );
                        kernels[221] = compute_kernel(x,   156  , 207968  , 442  , 50352  , 572  , 60576  , 729  , 52320  , 859  , 52000  , 1015  , 25680  , 539  , 130  , 47576  , 286  , 69864  , 442  , 213320  , 572  , 24264  , 729  , 31976  , 1588  , 21056  , 253  , 130  , 147712  , 286  , 74928  , 442  , 27488  , 598  , 111328  , 729  , 130928  , 885  , 33360  , 399 );
                        kernels[222] = compute_kernel(x,   156  , 233744  , 286  , 38704  , 442  , 31168  , 572  , 78400  , 885  , 30896  , 1015  , 44064  , 546  , 130  , 171160  , 286  , 76256  , 442  , 47752  , 572  , 37840  , 729  , 31088  , 1432  , 52616  , 241  , 156  , 118256  , 286  , 73888  , 572  , 42672  , 755  , 46624  , 859  , 31376  , 1301  , 21824  , 350 );
                        kernels[223] = compute_kernel(x,   156  , 239744  , 442  , 35680  , 572  , 40944  , 729  , 53232  , 859  , 54784  , 1301  , 21248  , 580  , 130  , 65400  , 286  , 39528  , 442  , 35480  , 572  , 35864  , 729  , 30696  , 1458  , 27400  , 227  , 156  , 71104  , 286  , 103984  , 442  , 34912  , 572  , 32736  , 703  , 46320  , 885  , 28224  , 304 );
                        kernels[224] = compute_kernel(x,   156  , 247232  , 442  , 67040  , 572  , 42016  , 729  , 35456  , 885  , 41600  , 1015  , 56544  , 582  , 156  , 79312  , 286  , 48976  , 442  , 99904  , 572  , 28704  , 1171  , 24192  , 1458  , 27128  , 241  , 312  , 246464  , 442  , 46464  , 572  , 37888  , 729  , 37424  , 885  , 35696  , 1744  , 30112  , 341 );
                        kernels[225] = compute_kernel(x,   156  , 214128  , 442  , 91072  , 598  , 128288  , 859  , 56112  , 1015  , 54176  , 1275  , 63968  , 570  , 156  , 108320  , 286  , 76992  , 442  , 75200  , 572  , 45984  , 1015  , 26576  , 1171  , 28800  , 350  , 156  , 75984  , 286  , 123200  , 442  , 44400  , 572  , 53328  , 859  , 40048  , 1614  , 46496  , 354 );
                        kernels[226] = compute_kernel(x,   156  , 177728  , 442  , 64080  , 572  , 42224  , 729  , 32224  , 859  , 47792  , 1015  , 32928  , 440  , 156  , 115056  , 286  , 58576  , 442  , 66368  , 572  , 26272  , 729  , 22704  , 1171  , 31312  , 360  , 156  , 123104  , 286  , 54976  , 442  , 37824  , 572  , 52576  , 729  , 32544  , 859  , 43136  , 368 );
                        kernels[227] = compute_kernel(x,   156  , 100640  , 286  , 67104  , 442  , 98960  , 729  , 42336  , 885  , 153744  , 1015  , 63520  , 386  , 156  , 111344  , 286  , 321440  , 442  , 39584  , 572  , 42976  , 729  , 20680  , 1171  , 32904  , 363  , 156  , 182320  , 286  , 178784  , 442  , 58832  , 572  , 42048  , 729  , 33200  , 859  , 40208  , 558 );
                        kernels[228] = compute_kernel(x,   156  , 87360  , 286  , 71696  , 442  , 60400  , 572  , 78192  , 885  , 140128  , 1301  , 29856  , 366  , 156  , 98768  , 260  , 106960  , 442  , 31360  , 729  , 28224  , 1171  , 26464  , 1458  , 21216  , 300  , 156  , 161632  , 286  , 84608  , 572  , 52256  , 729  , 31184  , 859  , 36400  , 1015  , 35264  , 468 );
                        kernels[229] = compute_kernel(x,   156  , 115504  , 286  , 43744  , 442  , 81264  , 729  , 58592  , 1015  , 44720  , 1301  , 48048  , 378  , 130  , 72608  , 286  , 38392  , 468  , 12376  , 729  , 30032  , 1171  , 94472  , 1458  , 24408  , 221  , 156  , 123264  , 286  , 147280  , 442  , 65200  , 572  , 39888  , 989  , 40368  , 1458  , 115280  , 431 );
                        kernels[230] = compute_kernel(x,   156  , 169232  , 286  , 64416  , 442  , 71248  , 572  , 38976  , 885  , 34624  , 989  , 146560  , 460  , 130  , 50464  , 286  , 47776  , 442  , 51664  , 598  , 19464  , 729  , 26768  , 1145  , 35024  , 213  , 130  , 101376  , 286  , 148272  , 442  , 62960  , 572  , 49216  , 729  , 24368  , 885  , 33504  , 423 );
                        kernels[231] = compute_kernel(x,   156  , 220064  , 286  , 59008  , 442  , 70640  , 572  , 47248  , 885  , 32848  , 1015  , 61072  , 559  , 130  , 52984  , 286  , 56400  , 442  , 38120  , 572  , 29728  , 729  , 29760  , 1171  , 27912  , 215  , 156  , 87840  , 286  , 214544  , 442  , 47888  , 598  , 93392  , 755  , 35504  , 885  , 35024  , 389 );
                        kernels[232] = compute_kernel(x,   156  , 240688  , 442  , 62880  , 572  , 35200  , 729  , 39600  , 885  , 44992  , 1015  , 36192  , 575  , 130  , 77720  , 286  , 47904  , 442  , 27304  , 572  , 31144  , 729  , 25696  , 1458  , 23424  , 263  , 130  , 31472  , 286  , 141232  , 442  , 40976  , 572  , 40336  , 729  , 36384  , 885  , 35168  , 330 );
                        kernels[233] = compute_kernel(x,   156  , 222160  , 286  , 43840  , 442  , 96032  , 572  , 83264  , 729  , 37840  , 859  , 63776  , 601  , 130  , 101768  , 286  , 75760  , 442  , 69536  , 572  , 43416  , 1171  , 25992  , 1458  , 34056  , 331  , 130  , 47376  , 286  , 136688  , 442  , 50560  , 572  , 46768  , 729  , 35616  , 885  , 38672  , 352 );
                        kernels[234] = compute_kernel(x,   156  , 186336  , 442  , 69168  , 572  , 59408  , 729  , 34112  , 885  , 41056  , 1041  , 43280  , 456  , 156  , 387568  , 286  , 67312  , 442  , 66528  , 572  , 31696  , 1171  , 30080  , 1432  , 26784  , 368  , 156  , 111232  , 286  , 69472  , 442  , 39552  , 572  , 55568  , 729  , 35072  , 859  , 47408  , 366 );
                        kernels[235] = compute_kernel(x,   156  , 136960  , 286  , 49248  , 442  , 72992  , 572  , 56592  , 729  , 34144  , 885  , 164944  , 427  , 130  , 113912  , 286  , 68280  , 572  , 38880  , 729  , 19720  , 1041  , 38080  , 1171  , 32416  , 321  , 156  , 158000  , 286  , 129728  , 442  , 45744  , 598  , 48864  , 885  , 41392  , 1900  , 30592  , 467 );
                        kernels[236] = compute_kernel(x,   156  , 98272  , 286  , 78384  , 442  , 105664  , 729  , 34064  , 859  , 53744  , 1015  , 63232  , 383  , 130  , 109512  , 286  , 100800  , 364  , 26456  , 442  , 38928  , 572  , 34208  , 1171  , 29112  , 353  , 156  , 183616  , 286  , 194928  , 442  , 64272  , 572  , 151600  , 729  , 35824  , 885  , 41568  , 583 );
                        kernels[237] = compute_kernel(x,   156  , 108128  , 286  , 76448  , 442  , 81472  , 572  , 51200  , 703  , 30928  , 1015  , 41040  , 371  , 156  , 92016  , 286  , 89536  , 442  , 27944  , 859  , 18496  , 1171  , 21016  , 1458  , 22640  , 296  , 156  , 195424  , 286  , 186384  , 442  , 50704  , 598  , 138272  , 859  , 41504  , 1458  , 86256  , 598 );
                        kernels[238] = compute_kernel(x,   156  , 188560  , 286  , 31856  , 442  , 46320  , 598  , 43408  , 729  , 65312  , 1015  , 52272  , 474  , 130  , 51864  , 286  , 69008  , 442  , 57632  , 572  , 27216  , 703  , 51296  , 1301  , 28544  , 256  , 156  , 171904  , 286  , 84960  , 442  , 30320  , 572  , 49824  , 729  , 30416  , 885  , 35536  , 462 );
                        kernels[239] = compute_kernel(x,   156  , 221728  , 286  , 30176  , 442  , 41088  , 572  , 77216  , 729  , 23504  , 859  , 49824  , 562  , 130  , 46408  , 286  , 73168  , 442  , 54296  , 572  , 31152  , 729  , 29960  , 1458  , 23416  , 245  , 156  , 138704  , 286  , 71504  , 572  , 46304  , 729  , 40944  , 885  , 29680  , 1015  , 80704  , 372 );
                        kernels[240] = compute_kernel(x,   156  , 240800  , 442  , 23904  , 598  , 123744  , 729  , 42112  , 885  , 39072  , 1015  , 47488  , 545  , 130  , 57712  , 286  , 208096  , 442  , 37824  , 572  , 37608  , 729  , 28552  , 1171  , 25008  , 232  , 156  , 86464  , 312  , 65216  , 416  , 24816  , 572  , 38288  , 729  , 34128  , 885  , 33056  , 311 );
                        kernels[241] = compute_kernel(x,   156  , 242848  , 286  , 32368  , 442  , 89904  , 572  , 84560  , 885  , 41824  , 1015  , 34848  , 577  , 130  , 293720  , 286  , 70384  , 442  , 51816  , 572  , 32128  , 729  , 26720  , 1458  , 32640  , 306  , 286  , 155296  , 442  , 54640  , 572  , 45152  , 729  , 43120  , 885  , 38944  , 1458  , 31968  , 360 );
                        kernels[242] = compute_kernel(x,   156  , 218896  , 442  , 92656  , 572  , 69616  , 729  , 48848  , 859  , 61520  , 1015  , 52160  , 605  , 156  , 105296  , 286  , 232304  , 442  , 74864  , 572  , 46288  , 755  , 29120  , 1458  , 29680  , 346  , 130  , 61520  , 286  , 132720  , 442  , 49136  , 572  , 47584  , 729  , 33824  , 885  , 42816  , 374 );
                        kernels[243] = compute_kernel(x,   156  , 195280  , 442  , 80528  , 729  , 42592  , 885  , 44720  , 989  , 42144  , 1301  , 29120  , 473  , 156  , 116640  , 286  , 68432  , 442  , 74192  , 572  , 37136  , 1015  , 23920  , 1171  , 29072  , 364  , 156  , 107232  , 286  , 75680  , 442  , 42912  , 572  , 51808  , 729  , 125456  , 885  , 45920  , 346 );
                        kernels[244] = compute_kernel(x,   156  , 545504  , 286  , 35824  , 442  , 43680  , 572  , 47328  , 859  , 64240  , 1015  , 66144  , 443  , 156  , 119136  , 286  , 58760  , 442  , 35640  , 572  , 29648  , 1015  , 20392  , 1171  , 27024  , 330  , 156  , 143968  , 312  , 156656  , 442  , 28752  , 572  , 39616  , 885  , 60544  , 1301  , 27456  , 428 );
                        kernels[245] = compute_kernel(x,   156  , 114496  , 286  , 228192  , 442  , 96144  , 572  , 53632  , 729  , 55760  , 1015  , 40800  , 430  , 156  , 116032  , 286  , 86040  , 442  , 38664  , 572  , 43872  , 1015  , 28936  , 1171  , 35752  , 346  , 156  , 165008  , 286  , 161504  , 442  , 56384  , 572  , 40416  , 885  , 40992  , 1458  , 75856  , 514 );
                        kernels[246] = compute_kernel(x,   156  , 89936  , 286  , 77184  , 442  , 95696  , 598  , 28960  , 859  , 57360  , 1015  , 50992  , 363  , 156  , 108608  , 286  , 101504  , 442  , 30328  , 572  , 21448  , 729  , 21408  , 1171  , 26216  , 343  , 156  , 186608  , 286  , 194800  , 442  , 57840  , 572  , 48384  , 859  , 121888  , 1145  , 34816  , 625 );
                        kernels[247] = compute_kernel(x,   156  , 179440  , 286  , 35552  , 442  , 41072  , 598  , 43120  , 729  , 60256  , 1015  , 51760  , 457  , 156  , 53544  , 286  , 71144  , 442  , 51440  , 572  , 31416  , 729  , 33728  , 1458  , 22768  , 257  , 156  , 174368  , 286  , 88288  , 442  , 29952  , 572  , 47696  , 729  , 30032  , 885  , 34064  , 453 );
                        kernels[248] = compute_kernel(x,   156  , 236448  , 286  , 41280  , 442  , 92544  , 572  , 84320  , 885  , 59904  , 1301  , 29856  , 622  , 156  , 96800  , 286  , 74320  , 442  , 65640  , 598  , 107256  , 1171  , 25104  , 1458  , 28656  , 321  , 286  , 151168  , 442  , 52480  , 572  , 47936  , 729  , 40112  , 885  , 42880  , 1458  , 33808  , 371 );
                        kernels[249] = compute_kernel(x,   156  , 203776  , 442  , 92720  , 729  , 51264  , 885  , 48912  , 1015  , 54288  , 1301  , 47360  , 527  , 156  , 112232  , 286  , 76888  , 442  , 79000  , 572  , 43464  , 1015  , 24760  , 1171  , 33800  , 371  , 156  , 82848  , 286  , 114624  , 442  , 48464  , 572  , 51632  , 885  , 44464  , 1301  , 35728  , 355 );
                        kernels[250] = compute_kernel(x,   156  , 175920  , 442  , 58752  , 572  , 30896  , 859  , 53888  , 1015  , 47232  , 1458  , 27520  , 462  , 156  , 114712  , 286  , 191624  , 442  , 60656  , 572  , 21312  , 729  , 22456  , 1171  , 31416  , 328  , 156  , 125664  , 312  , 41056  , 442  , 37504  , 572  , 46848  , 729  , 34080  , 885  , 44880  , 388 );
                        kernels[251] = compute_kernel(x,   156  , 134208  , 286  , 50992  , 442  , 77776  , 572  , 52544  , 885  , 48432  , 1458  , 80992  , 386  , 156  , 117504  , 286  , 72856  , 416  , 54184  , 572  , 35584  , 729  , 18168  , 1171  , 32584  , 346  , 156  , 164800  , 286  , 123184  , 442  , 47584  , 572  , 40560  , 885  , 41616  , 1015  , 30464  , 444 );
                        kernels[252] = compute_kernel(x,   156  , 293888  , 286  , 73888  , 442  , 107296  , 859  , 52608  , 1015  , 71776  , 1171  , 64112  , 419  , 156  , 111480  , 286  , 94312  , 442  , 40120  , 572  , 38496  , 1145  , 82040  , 2031  , 29016  , 350  , 156  , 186384  , 286  , 189888  , 442  , 63744  , 572  , 41968  , 729  , 37072  , 885  , 44096  , 608 );
                        kernels[253] = compute_kernel(x,   156  , 97200  , 286  , 82320  , 442  , 93136  , 572  , 42736  , 885  , 26416  , 1301  , 31760  , 374  , 156  , 99904  , 286  , 96864  , 390  , 26232  , 729  , 72784  , 1145  , 70120  , 1458  , 23816  , 315  , 156  , 184000  , 286  , 186608  , 442  , 54752  , 572  , 57584  , 885  , 40080  , 1015  , 38816  , 579 );
                        kernels[254] = compute_kernel(x,   156  , 342320  , 286  , 60784  , 442  , 46400  , 572  , 60272  , 859  , 52656  , 1015  , 59520  , 363  , 156  , 78752  , 286  , 82344  , 442  , 23880  , 572  , 33176  , 729  , 18800  , 1458  , 23144  , 268  , 156  , 192976  , 286  , 160672  , 468  , 52000  , 572  , 53040  , 885  , 39280  , 1041  , 47504  , 575 );
                        kernels[255] = compute_kernel(x,   156  , 172272  , 286  , 41968  , 442  , 37568  , 572  , 38544  , 729  , 50912  , 1015  , 40480  , 440  , 156  , 58232  , 286  , 74624  , 442  , 51736  , 572  , 39752  , 729  , 31448  , 1171  , 54168  , 264  , 156  , 173088  , 286  , 109456  , 442  , 31776  , 572  , 49376  , 729  , 29552  , 885  , 31520  , 459 );
                        kernels[256] = compute_kernel(x,   130  , 708320  , 286  , 42976  , 442  , 32288  , 572  , 67840  , 885  , 38928  , 1015  , 49616  , 568  , 130  , 48360  , 312  , 140808  , 442  , 53512  , 572  , 36304  , 729  , 30792  , 1458  , 25968  , 256  , 156  , 124064  , 286  , 80800  , 572  , 45904  , 729  , 37664  , 885  , 34704  , 1458  , 24304  , 353 );
                        kernels[257] = compute_kernel(x,   156  , 255600  , 442  , 71600  , 572  , 38912  , 729  , 43472  , 885  , 38352  , 1015  , 53328  , 587  , 156  , 80288  , 286  , 46984  , 442  , 31952  , 598  , 27976  , 729  , 25192  , 1458  , 30600  , 260  , 286  , 144240  , 442  , 133136  , 572  , 37392  , 729  , 36432  , 885  , 37632  , 1458  , 29344  , 341 );
                        kernels[258] = compute_kernel(x,   156  , 241104  , 442  , 94416  , 598  , 149616  , 729  , 51200  , 885  , 58176  , 1588  , 43808  , 618  , 156  , 326032  , 286  , 74640  , 442  , 64648  , 572  , 37264  , 1171  , 26160  , 1458  , 29984  , 315  , 156  , 93312  , 286  , 151184  , 442  , 56080  , 572  , 48240  , 729  , 39072  , 885  , 43744  , 366 );
                        kernels[259] = compute_kernel(x,   156  , 215200  , 286  , 53984  , 442  , 88688  , 729  , 53632  , 885  , 53824  , 1015  , 52720  , 529  , 156  , 109744  , 286  , 76512  , 442  , 80096  , 572  , 41456  , 1015  , 27696  , 1171  , 31760  , 375  , 156  , 80224  , 286  , 116592  , 442  , 46800  , 572  , 49920  , 885  , 45280  , 1327  , 67536  , 361 );
                        kernels[260] = compute_kernel(x,   156  , 135792  , 286  , 48400  , 442  , 79024  , 572  , 52384  , 729  , 40944  , 885  , 46112  , 385  , 156  , 117648  , 286  , 70176  , 572  , 37976  , 1015  , 18248  , 1171  , 35584  , 1327  , 27760  , 346  , 156  , 154384  , 286  , 120032  , 442  , 53360  , 572  , 40336  , 885  , 43168  , 1301  , 61376  , 447 );
                        kernels[261] = compute_kernel(x,   156  , 127584  , 286  , 64688  , 442  , 50000  , 572  , 60880  , 859  , 47088  , 1015  , 55360  , 364  , 156  , 80976  , 286  , 81936  , 442  , 22928  , 572  , 34320  , 1171  , 20592  , 1458  , 21376  , 269  , 130  , 607984  , 286  , 169872  , 442  , 40560  , 572  , 53952  , 729  , 28112  , 885  , 34832  , 581 );
                        kernels[262] = compute_kernel(x,   156  , 169424  , 286  , 40192  , 442  , 35296  , 572  , 38256  , 729  , 42112  , 1145  , 34160  , 430  , 130  , 59368  , 286  , 73184  , 442  , 48208  , 572  , 39992  , 729  , 29056  , 1458  , 21648  , 261  , 156  , 179120  , 286  , 110432  , 442  , 36032  , 572  , 48928  , 729  , 31824  , 885  , 33792  , 467 );
                        kernels[263] = compute_kernel(x,   156  , 202960  , 442  , 159984  , 572  , 51760  , 729  , 59376  , 859  , 41776  , 1015  , 37680  , 494  , 130  , 49472  , 286  , 70752  , 442  , 63064  , 598  , 80008  , 729  , 29520  , 1458  , 23496  , 237  , 156  , 160768  , 312  , 46208  , 442  , 27632  , 572  , 47392  , 729  , 31536  , 885  , 33968  , 434 );
                        kernels[264] = compute_kernel(x,   156  , 256016  , 442  , 64192  , 598  , 27360  , 729  , 55072  , 885  , 44272  , 1015  , 51280  , 589  , 156  , 77096  , 286  , 42088  , 442  , 26000  , 572  , 29096  , 729  , 24736  , 1458  , 24984  , 246  , 156  , 37824  , 286  , 135776  , 416  , 110336  , 572  , 33872  , 729  , 32640  , 885  , 32736  , 331 );
                        kernels[265] = compute_kernel(x,   156  , 238032  , 286  , 37840  , 442  , 95232  , 572  , 82000  , 885  , 45616  , 1015  , 31504  , 623  , 130  , 138472  , 286  , 204704  , 442  , 55936  , 572  , 32328  , 729  , 27912  , 1458  , 33360  , 294  , 286  , 152096  , 442  , 56736  , 572  , 45680  , 729  , 42304  , 885  , 42608  , 1458  , 34992  , 368 );
                        kernels[266] = compute_kernel(x,   156  , 227408  , 416  , 158944  , 572  , 66352  , 729  , 45264  , 859  , 59888  , 1015  , 49616  , 556  , 156  , 105040  , 286  , 76320  , 442  , 77712  , 572  , 42216  , 1171  , 27584  , 1458  , 33160  , 370  , 156  , 56960  , 286  , 130784  , 442  , 48208  , 572  , 47472  , 885  , 41728  , 1458  , 32432  , 357 );
                        kernels[267] = compute_kernel(x,   156  , 210000  , 442  , 81104  , 572  , 34128  , 729  , 50416  , 885  , 38656  , 1301  , 33072  , 509  , 156  , 114864  , 286  , 68176  , 442  , 77184  , 572  , 34992  , 1171  , 33488  , 1458  , 24784  , 343  , 156  , 105928  , 286  , 76512  , 442  , 44616  , 572  , 54088  , 729  , 33800  , 885  , 45328  , 363 );
                        kernels[268] = compute_kernel(x,   130  , 466464  , 442  , 50208  , 859  , 62992  , 1015  , 64336  , 1327  , 52112  , 1458  , 76720  , 410  , 156  , 120744  , 286  , 54840  , 442  , 50104  , 572  , 19304  , 729  , 20232  , 1171  , 34024  , 343  , 156  , 141392  , 286  , 61264  , 442  , 54960  , 572  , 45424  , 885  , 42416  , 1301  , 28672  , 381 );
